digraph Tree {
node [shape=box, style="filled, rounded", color="black", fontname="helvetica"] ;
edge [fontname="helvetica"] ;
0 [label=<vertical acc &le; 0.359<br/>gini = 0.554<br/>samples = 46509<br/>value = [12789, 3993, 27949, 1778]<br/>class = Lying>, fillcolor="#a6d3f3"] ;
1 [label=<lateral acc &le; -0.316<br/>gini = 0.001<br/>samples = 27936<br/>value = [14, 0, 27922, 0]<br/>class = Lying>, fillcolor="#399de5"] ;
0 -> 1 [labeldistance=2.5, labelangle=45, headlabel="True"] ;
2 [label=<phase &le; 6.272<br/>gini = 0.219<br/>samples = 48<br/>value = [6, 0, 42, 0]<br/>class = Lying>, fillcolor="#55abe9"] ;
1 -> 2 ;
3 [label=<gini = 0.0<br/>samples = 42<br/>value = [0, 0, 42, 0]<br/>class = Lying>, fillcolor="#399de5"] ;
2 -> 3 ;
4 [label=<gini = 0.0<br/>samples = 6<br/>value = [6, 0, 0, 0]<br/>class = Bed>, fillcolor="#e58139"] ;
2 -> 4 ;
5 [label=<lateral acc &le; 0.174<br/>gini = 0.001<br/>samples = 27888<br/>value = [8, 0, 27880, 0]<br/>class = Lying>, fillcolor="#399de5"] ;
1 -> 5 ;
6 [label=<RSSI &le; -65.75<br/>gini = 0.0<br/>samples = 26259<br/>value = [2, 0, 26257, 0]<br/>class = Lying>, fillcolor="#399de5"] ;
5 -> 6 ;
7 [label=<vertical acc &le; 0.25<br/>gini = 0.002<br/>samples = 1893<br/>value = [2, 0, 1891, 0]<br/>class = Lying>, fillcolor="#399de5"] ;
6 -> 7 ;
8 [label=<vertical acc &le; 0.153<br/>gini = 0.001<br/>samples = 1859<br/>value = [1, 0, 1858, 0]<br/>class = Lying>, fillcolor="#399de5"] ;
7 -> 8 ;
9 [label=<gini = 0.0<br/>samples = 1753<br/>value = [0, 0, 1753, 0]<br/>class = Lying>, fillcolor="#399de5"] ;
8 -> 9 ;
10 [label=<phase &le; 0.324<br/>gini = 0.019<br/>samples = 106<br/>value = [1, 0, 105, 0]<br/>class = Lying>, fillcolor="#3b9ee5"] ;
8 -> 10 ;
11 [label=<lateral acc &le; -0.122<br/>gini = 0.32<br/>samples = 5<br/>value = [1, 0, 4, 0]<br/>class = Lying>, fillcolor="#6ab6ec"] ;
10 -> 11 ;
12 [label=<gini = 0.0<br/>samples = 4<br/>value = [0, 0, 4, 0]<br/>class = Lying>, fillcolor="#399de5"] ;
11 -> 12 ;
13 [label=<gini = 0.0<br/>samples = 1<br/>value = [1, 0, 0, 0]<br/>class = Bed>, fillcolor="#e58139"] ;
11 -> 13 ;
14 [label=<gini = 0.0<br/>samples = 101<br/>value = [0, 0, 101, 0]<br/>class = Lying>, fillcolor="#399de5"] ;
10 -> 14 ;
15 [label=<frontal acc &le; 1.263<br/>gini = 0.057<br/>samples = 34<br/>value = [1, 0, 33, 0]<br/>class = Lying>, fillcolor="#3fa0e6"] ;
7 -> 15 ;
16 [label=<gini = 0.0<br/>samples = 33<br/>value = [0, 0, 33, 0]<br/>class = Lying>, fillcolor="#399de5"] ;
15 -> 16 ;
17 [label=<gini = 0.0<br/>samples = 1<br/>value = [1, 0, 0, 0]<br/>class = Bed>, fillcolor="#e58139"] ;
15 -> 17 ;
18 [label=<gini = 0.0<br/>samples = 24366<br/>value = [0, 0, 24366, 0]<br/>class = Lying>, fillcolor="#399de5"] ;
6 -> 18 ;
19 [label=<frontal acc &le; 1.11<br/>gini = 0.007<br/>samples = 1629<br/>value = [6, 0, 1623, 0]<br/>class = Lying>, fillcolor="#3a9de5"] ;
5 -> 19 ;
20 [label=<gini = 0.0<br/>samples = 1238<br/>value = [0, 0, 1238, 0]<br/>class = Lying>, fillcolor="#399de5"] ;
19 -> 20 ;
21 [label=<vertical acc &le; 0.141<br/>gini = 0.03<br/>samples = 391<br/>value = [6, 0, 385, 0]<br/>class = Lying>, fillcolor="#3c9fe5"] ;
19 -> 21 ;
22 [label=<frontal acc &le; 1.122<br/>gini = 0.01<br/>samples = 385<br/>value = [2, 0, 383, 0]<br/>class = Lying>, fillcolor="#3a9ee5"] ;
21 -> 22 ;
23 [label=<phase &le; 2.464<br/>gini = 0.18<br/>samples = 20<br/>value = [2, 0, 18, 0]<br/>class = Lying>, fillcolor="#4fa8e8"] ;
22 -> 23 ;
24 [label=<gini = 0.0<br/>samples = 13<br/>value = [0, 0, 13, 0]<br/>class = Lying>, fillcolor="#399de5"] ;
23 -> 24 ;
25 [label=<lateral acc &le; 0.192<br/>gini = 0.408<br/>samples = 7<br/>value = [2, 0, 5, 0]<br/>class = Lying>, fillcolor="#88c4ef"] ;
23 -> 25 ;
26 [label=<phase &le; 5.91<br/>gini = 0.444<br/>samples = 3<br/>value = [2, 0, 1, 0]<br/>class = Bed>, fillcolor="#f2c09c"] ;
25 -> 26 ;
27 [label=<gini = 0.0<br/>samples = 2<br/>value = [2, 0, 0, 0]<br/>class = Bed>, fillcolor="#e58139"] ;
26 -> 27 ;
28 [label=<gini = 0.0<br/>samples = 1<br/>value = [0, 0, 1, 0]<br/>class = Lying>, fillcolor="#399de5"] ;
26 -> 28 ;
29 [label=<gini = 0.0<br/>samples = 4<br/>value = [0, 0, 4, 0]<br/>class = Lying>, fillcolor="#399de5"] ;
25 -> 29 ;
30 [label=<gini = 0.0<br/>samples = 365<br/>value = [0, 0, 365, 0]<br/>class = Lying>, fillcolor="#399de5"] ;
22 -> 30 ;
31 [label=<lateral acc &le; 0.346<br/>gini = 0.444<br/>samples = 6<br/>value = [4, 0, 2, 0]<br/>class = Bed>, fillcolor="#f2c09c"] ;
21 -> 31 ;
32 [label=<gini = 0.0<br/>samples = 2<br/>value = [0, 0, 2, 0]<br/>class = Lying>, fillcolor="#399de5"] ;
31 -> 32 ;
33 [label=<gini = 0.0<br/>samples = 4<br/>value = [4, 0, 0, 0]<br/>class = Bed>, fillcolor="#e58139"] ;
31 -> 33 ;
34 [label=<RSSI &le; -51.25<br/>gini = 0.472<br/>samples = 18573<br/>value = [12775, 3993, 27, 1778]<br/>class = Bed>, fillcolor="#efb388"] ;
0 -> 34 [labeldistance=2.5, labelangle=-45, headlabel="False"] ;
35 [label=<frontal acc &le; 0.512<br/>gini = 0.428<br/>samples = 17697<br/>value = [12746, 3979, 23, 949]<br/>class = Bed>, fillcolor="#eeae80"] ;
34 -> 35 ;
36 [label=<RSSI &le; -55.25<br/>gini = 0.305<br/>samples = 12507<br/>value = [10302, 1350, 2, 853]<br/>class = Bed>, fillcolor="#ea9a60"] ;
35 -> 36 ;
37 [label=<vertical acc &le; 1.048<br/>gini = 0.274<br/>samples = 12048<br/>value = [10182, 1062, 1, 803]<br/>class = Bed>, fillcolor="#e9965b"] ;
36 -> 37 ;
38 [label=<lateral acc &le; -0.145<br/>gini = 0.254<br/>samples = 11771<br/>value = [10097, 1014, 1, 659]<br/>class = Bed>, fillcolor="#e99558"] ;
37 -> 38 ;
39 [label=<RSSI &le; -61.25<br/>gini = 0.643<br/>samples = 134<br/>value = [26, 53, 1, 54]<br/>class = Ambulating>, fillcolor="#fffdff"] ;
38 -> 39 ;
40 [label=<frontal acc &le; 0.354<br/>gini = 0.239<br/>samples = 36<br/>value = [5, 0, 0, 31]<br/>class = Ambulating>, fillcolor="#dd59e9"] ;
39 -> 40 ;
41 [label=<vertical acc &le; 0.658<br/>gini = 0.114<br/>samples = 33<br/>value = [2, 0, 0, 31]<br/>class = Ambulating>, fillcolor="#da46e7"] ;
40 -> 41 ;
42 [label=<gini = 0.0<br/>samples = 2<br/>value = [2, 0, 0, 0]<br/>class = Bed>, fillcolor="#e58139"] ;
41 -> 42 ;
43 [label=<gini = 0.0<br/>samples = 31<br/>value = [0, 0, 0, 31]<br/>class = Ambulating>, fillcolor="#d739e5"] ;
41 -> 43 ;
44 [label=<gini = 0.0<br/>samples = 3<br/>value = [3, 0, 0, 0]<br/>class = Bed>, fillcolor="#e58139"] ;
40 -> 44 ;
45 [label=<frontal acc &le; 0.167<br/>gini = 0.606<br/>samples = 98<br/>value = [21, 53, 1, 23]<br/>class = Chair>, fillcolor="#b5f5b0"] ;
39 -> 45 ;
46 [label=<frontal acc &le; -0.004<br/>gini = 0.635<br/>samples = 29<br/>value = [11, 4, 1, 13]<br/>class = Ambulating>, fillcolor="#fbe9fc"] ;
45 -> 46 ;
47 [label=<vertical acc &le; 0.997<br/>gini = 0.615<br/>samples = 20<br/>value = [11, 4, 1, 4]<br/>class = Bed>, fillcolor="#f4c8a8"] ;
46 -> 47 ;
48 [label=<phase &le; 3.973<br/>gini = 0.519<br/>samples = 17<br/>value = [11, 4, 1, 1]<br/>class = Bed>, fillcolor="#f1bb94"] ;
47 -> 48 ;
49 [label=<RSSI &le; -59.75<br/>gini = 0.314<br/>samples = 11<br/>value = [9, 1, 1, 0]<br/>class = Bed>, fillcolor="#ea9a61"] ;
48 -> 49 ;
50 [label=<gini = 0.0<br/>samples = 1<br/>value = [0, 1, 0, 0]<br/>class = Chair>, fillcolor="#47e539"] ;
49 -> 50 ;
51 [label=<RSSI &le; -56.75<br/>gini = 0.18<br/>samples = 10<br/>value = [9, 0, 1, 0]<br/>class = Bed>, fillcolor="#e88f4f"] ;
49 -> 51 ;
52 [label=<gini = 0.0<br/>samples = 8<br/>value = [8, 0, 0, 0]<br/>class = Bed>, fillcolor="#e58139"] ;
51 -> 52 ;
53 [label=<frequency &le; 922.75<br/>gini = 0.5<br/>samples = 2<br/>value = [1, 0, 1, 0]<br/>class = Bed>, fillcolor="#ffffff"] ;
51 -> 53 ;
54 [label=<gini = 0.0<br/>samples = 1<br/>value = [1, 0, 0, 0]<br/>class = Bed>, fillcolor="#e58139"] ;
53 -> 54 ;
55 [label=<gini = 0.0<br/>samples = 1<br/>value = [0, 0, 1, 0]<br/>class = Lying>, fillcolor="#399de5"] ;
53 -> 55 ;
56 [label=<phase &le; 4.583<br/>gini = 0.611<br/>samples = 6<br/>value = [2, 3, 0, 1]<br/>class = Chair>, fillcolor="#d1f8ce"] ;
48 -> 56 ;
57 [label=<gini = 0.0<br/>samples = 1<br/>value = [0, 0, 0, 1]<br/>class = Ambulating>, fillcolor="#d739e5"] ;
56 -> 57 ;
58 [label=<frontal acc &le; -0.414<br/>gini = 0.48<br/>samples = 5<br/>value = [2, 3, 0, 0]<br/>class = Chair>, fillcolor="#c2f6bd"] ;
56 -> 58 ;
59 [label=<gini = 0.0<br/>samples = 1<br/>value = [1, 0, 0, 0]<br/>class = Bed>, fillcolor="#e58139"] ;
58 -> 59 ;
60 [label=<frontal acc &le; -0.174<br/>gini = 0.375<br/>samples = 4<br/>value = [1, 3, 0, 0]<br/>class = Chair>, fillcolor="#84ee7b"] ;
58 -> 60 ;
61 [label=<gini = 0.0<br/>samples = 3<br/>value = [0, 3, 0, 0]<br/>class = Chair>, fillcolor="#47e539"] ;
60 -> 61 ;
62 [label=<gini = 0.0<br/>samples = 1<br/>value = [1, 0, 0, 0]<br/>class = Bed>, fillcolor="#e58139"] ;
60 -> 62 ;
63 [label=<gini = 0.0<br/>samples = 3<br/>value = [0, 0, 0, 3]<br/>class = Ambulating>, fillcolor="#d739e5"] ;
47 -> 63 ;
64 [label=<gini = 0.0<br/>samples = 9<br/>value = [0, 0, 0, 9]<br/>class = Ambulating>, fillcolor="#d739e5"] ;
46 -> 64 ;
65 [label=<RSSI &le; -56.25<br/>gini = 0.454<br/>samples = 69<br/>value = [10, 49, 0, 10]<br/>class = Chair>, fillcolor="#85ee7c"] ;
45 -> 65 ;
66 [label=<frontal acc &le; 0.43<br/>gini = 0.606<br/>samples = 43<br/>value = [10, 23, 0, 10]<br/>class = Chair>, fillcolor="#b7f5b1"] ;
65 -> 66 ;
67 [label=<frequency &le; 922.5<br/>gini = 0.663<br/>samples = 28<br/>value = [10, 8, 0, 10]<br/>class = Bed>, fillcolor="#ffffff"] ;
66 -> 67 ;
68 [label=<frontal acc &le; 0.325<br/>gini = 0.555<br/>samples = 16<br/>value = [7, 8, 0, 1]<br/>class = Chair>, fillcolor="#ebfce9"] ;
67 -> 68 ;
69 [label=<RSSI &le; -59.25<br/>gini = 0.34<br/>samples = 10<br/>value = [1, 8, 0, 1]<br/>class = Chair>, fillcolor="#70eb65"] ;
68 -> 69 ;
70 [label=<frontal acc &le; 0.26<br/>gini = 0.5<br/>samples = 2<br/>value = [1, 0, 0, 1]<br/>class = Bed>, fillcolor="#ffffff"] ;
69 -> 70 ;
71 [label=<gini = 0.0<br/>samples = 1<br/>value = [1, 0, 0, 0]<br/>class = Bed>, fillcolor="#e58139"] ;
70 -> 71 ;
72 [label=<gini = 0.0<br/>samples = 1<br/>value = [0, 0, 0, 1]<br/>class = Ambulating>, fillcolor="#d739e5"] ;
70 -> 72 ;
73 [label=<gini = 0.0<br/>samples = 8<br/>value = [0, 8, 0, 0]<br/>class = Chair>, fillcolor="#47e539"] ;
69 -> 73 ;
74 [label=<gini = 0.0<br/>samples = 6<br/>value = [6, 0, 0, 0]<br/>class = Bed>, fillcolor="#e58139"] ;
68 -> 74 ;
75 [label=<RSSI &le; -58.25<br/>gini = 0.375<br/>samples = 12<br/>value = [3, 0, 0, 9]<br/>class = Ambulating>, fillcolor="#e47bee"] ;
67 -> 75 ;
76 [label=<gini = 0.0<br/>samples = 2<br/>value = [2, 0, 0, 0]<br/>class = Bed>, fillcolor="#e58139"] ;
75 -> 76 ;
77 [label=<vertical acc &le; 0.98<br/>gini = 0.18<br/>samples = 10<br/>value = [1, 0, 0, 9]<br/>class = Ambulating>, fillcolor="#db4fe8"] ;
75 -> 77 ;
78 [label=<gini = 0.0<br/>samples = 9<br/>value = [0, 0, 0, 9]<br/>class = Ambulating>, fillcolor="#d739e5"] ;
77 -> 78 ;
79 [label=<gini = 0.0<br/>samples = 1<br/>value = [1, 0, 0, 0]<br/>class = Bed>, fillcolor="#e58139"] ;
77 -> 79 ;
80 [label=<gini = 0.0<br/>samples = 15<br/>value = [0, 15, 0, 0]<br/>class = Chair>, fillcolor="#47e539"] ;
66 -> 80 ;
81 [label=<gini = 0.0<br/>samples = 26<br/>value = [0, 26, 0, 0]<br/>class = Chair>, fillcolor="#47e539"] ;
65 -> 81 ;
82 [label=<RSSI &le; -58.25<br/>gini = 0.242<br/>samples = 11637<br/>value = [10071, 961, 0, 605]<br/>class = Bed>, fillcolor="#e99356"] ;
38 -> 82 ;
83 [label=<vertical acc &le; 0.876<br/>gini = 0.159<br/>samples = 5612<br/>value = [5133, 104, 0, 375]<br/>class = Bed>, fillcolor="#e78d4b"] ;
82 -> 83 ;
84 [label=<frontal acc &le; 0.254<br/>gini = 0.489<br/>samples = 208<br/>value = [124, 2, 0, 82]<br/>class = Bed>, fillcolor="#f6d5bd"] ;
83 -> 84 ;
85 [label=<frequency &le; 924.0<br/>gini = 0.493<br/>samples = 94<br/>value = [35, 2, 0, 57]<br/>class = Ambulating>, fillcolor="#f0b5f5"] ;
84 -> 85 ;
86 [label=<vertical acc &le; 0.853<br/>gini = 0.49<br/>samples = 42<br/>value = [24, 0, 0, 18]<br/>class = Bed>, fillcolor="#f8e0ce"] ;
85 -> 86 ;
87 [label=<frontal acc &le; -0.244<br/>gini = 0.487<br/>samples = 31<br/>value = [13, 0, 0, 18]<br/>class = Ambulating>, fillcolor="#f4c8f8"] ;
86 -> 87 ;
88 [label=<gini = 0.0<br/>samples = 5<br/>value = [5, 0, 0, 0]<br/>class = Bed>, fillcolor="#e58139"] ;
87 -> 88 ;
89 [label=<frequency &le; 921.5<br/>gini = 0.426<br/>samples = 26<br/>value = [8, 0, 0, 18]<br/>class = Ambulating>, fillcolor="#e991f1"] ;
87 -> 89 ;
90 [label=<gini = 0.0<br/>samples = 10<br/>value = [0, 0, 0, 10]<br/>class = Ambulating>, fillcolor="#d739e5"] ;
89 -> 90 ;
91 [label=<lateral acc &le; 0.021<br/>gini = 0.5<br/>samples = 16<br/>value = [8, 0, 0, 8]<br/>class = Bed>, fillcolor="#ffffff"] ;
89 -> 91 ;
92 [label=<gini = 0.0<br/>samples = 4<br/>value = [0, 0, 0, 4]<br/>class = Ambulating>, fillcolor="#d739e5"] ;
91 -> 92 ;
93 [label=<RSSI &le; -62.0<br/>gini = 0.444<br/>samples = 12<br/>value = [8, 0, 0, 4]<br/>class = Bed>, fillcolor="#f2c09c"] ;
91 -> 93 ;
94 [label=<gini = 0.0<br/>samples = 3<br/>value = [3, 0, 0, 0]<br/>class = Bed>, fillcolor="#e58139"] ;
93 -> 94 ;
95 [label=<RSSI &le; -60.75<br/>gini = 0.494<br/>samples = 9<br/>value = [5, 0, 0, 4]<br/>class = Bed>, fillcolor="#fae6d7"] ;
93 -> 95 ;
96 [label=<gini = 0.0<br/>samples = 2<br/>value = [0, 0, 0, 2]<br/>class = Ambulating>, fillcolor="#d739e5"] ;
95 -> 96 ;
97 [label=<lateral acc &le; 0.391<br/>gini = 0.408<br/>samples = 7<br/>value = [5, 0, 0, 2]<br/>class = Bed>, fillcolor="#efb388"] ;
95 -> 97 ;
98 [label=<gini = 0.0<br/>samples = 4<br/>value = [4, 0, 0, 0]<br/>class = Bed>, fillcolor="#e58139"] ;
97 -> 98 ;
99 [label=<RSSI &le; -60.25<br/>gini = 0.444<br/>samples = 3<br/>value = [1, 0, 0, 2]<br/>class = Ambulating>, fillcolor="#eb9cf2"] ;
97 -> 99 ;
100 [label=<gini = 0.0<br/>samples = 1<br/>value = [1, 0, 0, 0]<br/>class = Bed>, fillcolor="#e58139"] ;
99 -> 100 ;
101 [label=<gini = 0.0<br/>samples = 2<br/>value = [0, 0, 0, 2]<br/>class = Ambulating>, fillcolor="#d739e5"] ;
99 -> 101 ;
102 [label=<gini = 0.0<br/>samples = 11<br/>value = [11, 0, 0, 0]<br/>class = Bed>, fillcolor="#e58139"] ;
86 -> 102 ;
103 [label=<lateral acc &le; 0.123<br/>gini = 0.391<br/>samples = 52<br/>value = [11, 2, 0, 39]<br/>class = Ambulating>, fillcolor="#e478ed"] ;
85 -> 103 ;
104 [label=<frontal acc &le; -0.162<br/>gini = 0.123<br/>samples = 31<br/>value = [1, 1, 0, 29]<br/>class = Ambulating>, fillcolor="#da46e7"] ;
103 -> 104 ;
105 [label=<frequency &le; 925.25<br/>gini = 0.5<br/>samples = 2<br/>value = [1, 1, 0, 0]<br/>class = Bed>, fillcolor="#ffffff"] ;
104 -> 105 ;
106 [label=<gini = 0.0<br/>samples = 1<br/>value = [1, 0, 0, 0]<br/>class = Bed>, fillcolor="#e58139"] ;
105 -> 106 ;
107 [label=<gini = 0.0<br/>samples = 1<br/>value = [0, 1, 0, 0]<br/>class = Chair>, fillcolor="#47e539"] ;
105 -> 107 ;
108 [label=<gini = 0.0<br/>samples = 29<br/>value = [0, 0, 0, 29]<br/>class = Ambulating>, fillcolor="#d739e5"] ;
104 -> 108 ;
109 [label=<frontal acc &le; 0.084<br/>gini = 0.544<br/>samples = 21<br/>value = [10, 1, 0, 10]<br/>class = Bed>, fillcolor="#ffffff"] ;
103 -> 109 ;
110 [label=<phase &le; 5.984<br/>gini = 0.48<br/>samples = 15<br/>value = [10, 1, 0, 4]<br/>class = Bed>, fillcolor="#f1ba93"] ;
109 -> 110 ;
111 [label=<vertical acc &le; 0.773<br/>gini = 0.355<br/>samples = 13<br/>value = [10, 0, 0, 3]<br/>class = Bed>, fillcolor="#eda774"] ;
110 -> 111 ;
112 [label=<vertical acc &le; 0.692<br/>gini = 0.5<br/>samples = 6<br/>value = [3, 0, 0, 3]<br/>class = Bed>, fillcolor="#ffffff"] ;
111 -> 112 ;
113 [label=<gini = 0.0<br/>samples = 3<br/>value = [3, 0, 0, 0]<br/>class = Bed>, fillcolor="#e58139"] ;
112 -> 113 ;
114 [label=<gini = 0.0<br/>samples = 3<br/>value = [0, 0, 0, 3]<br/>class = Ambulating>, fillcolor="#d739e5"] ;
112 -> 114 ;
115 [label=<gini = 0.0<br/>samples = 7<br/>value = [7, 0, 0, 0]<br/>class = Bed>, fillcolor="#e58139"] ;
111 -> 115 ;
116 [label=<RSSI &le; -62.0<br/>gini = 0.5<br/>samples = 2<br/>value = [0, 1, 0, 1]<br/>class = Chair>, fillcolor="#ffffff"] ;
110 -> 116 ;
117 [label=<gini = 0.0<br/>samples = 1<br/>value = [0, 0, 0, 1]<br/>class = Ambulating>, fillcolor="#d739e5"] ;
116 -> 117 ;
118 [label=<gini = 0.0<br/>samples = 1<br/>value = [0, 1, 0, 0]<br/>class = Chair>, fillcolor="#47e539"] ;
116 -> 118 ;
119 [label=<gini = 0.0<br/>samples = 6<br/>value = [0, 0, 0, 6]<br/>class = Ambulating>, fillcolor="#d739e5"] ;
109 -> 119 ;
120 [label=<RSSI &le; -59.75<br/>gini = 0.342<br/>samples = 114<br/>value = [89, 0, 0, 25]<br/>class = Bed>, fillcolor="#eca471"] ;
84 -> 120 ;
121 [label=<lateral acc &le; 0.129<br/>gini = 0.467<br/>samples = 62<br/>value = [39, 0, 0, 23]<br/>class = Bed>, fillcolor="#f4cbae"] ;
120 -> 121 ;
122 [label=<frequency &le; 921.5<br/>gini = 0.278<br/>samples = 12<br/>value = [2, 0, 0, 10]<br/>class = Ambulating>, fillcolor="#df61ea"] ;
121 -> 122 ;
123 [label=<gini = 0.0<br/>samples = 2<br/>value = [2, 0, 0, 0]<br/>class = Bed>, fillcolor="#e58139"] ;
122 -> 123 ;
124 [label=<gini = 0.0<br/>samples = 10<br/>value = [0, 0, 0, 10]<br/>class = Ambulating>, fillcolor="#d739e5"] ;
122 -> 124 ;
125 [label=<phase &le; 0.196<br/>gini = 0.385<br/>samples = 50<br/>value = [37, 0, 0, 13]<br/>class = Bed>, fillcolor="#eead7f"] ;
121 -> 125 ;
126 [label=<RSSI &le; -64.75<br/>gini = 0.245<br/>samples = 7<br/>value = [1, 0, 0, 6]<br/>class = Ambulating>, fillcolor="#de5ae9"] ;
125 -> 126 ;
127 [label=<gini = 0.0<br/>samples = 6<br/>value = [0, 0, 0, 6]<br/>class = Ambulating>, fillcolor="#d739e5"] ;
126 -> 127 ;
128 [label=<gini = 0.0<br/>samples = 1<br/>value = [1, 0, 0, 0]<br/>class = Bed>, fillcolor="#e58139"] ;
126 -> 128 ;
129 [label=<frequency &le; 920.5<br/>gini = 0.273<br/>samples = 43<br/>value = [36, 0, 0, 7]<br/>class = Bed>, fillcolor="#ea9a5f"] ;
125 -> 129 ;
130 [label=<frontal acc &le; 0.36<br/>gini = 0.245<br/>samples = 7<br/>value = [1, 0, 0, 6]<br/>class = Ambulating>, fillcolor="#de5ae9"] ;
129 -> 130 ;
131 [label=<gini = 0.0<br/>samples = 1<br/>value = [1, 0, 0, 0]<br/>class = Bed>, fillcolor="#e58139"] ;
130 -> 131 ;
132 [label=<gini = 0.0<br/>samples = 6<br/>value = [0, 0, 0, 6]<br/>class = Ambulating>, fillcolor="#d739e5"] ;
130 -> 132 ;
133 [label=<lateral acc &le; 0.665<br/>gini = 0.054<br/>samples = 36<br/>value = [35, 0, 0, 1]<br/>class = Bed>, fillcolor="#e6853f"] ;
129 -> 133 ;
134 [label=<gini = 0.0<br/>samples = 35<br/>value = [35, 0, 0, 0]<br/>class = Bed>, fillcolor="#e58139"] ;
133 -> 134 ;
135 [label=<gini = 0.0<br/>samples = 1<br/>value = [0, 0, 0, 1]<br/>class = Ambulating>, fillcolor="#d739e5"] ;
133 -> 135 ;
136 [label=<lateral acc &le; 0.026<br/>gini = 0.074<br/>samples = 52<br/>value = [50, 0, 0, 2]<br/>class = Bed>, fillcolor="#e68641"] ;
120 -> 136 ;
137 [label=<gini = 0.0<br/>samples = 2<br/>value = [0, 0, 0, 2]<br/>class = Ambulating>, fillcolor="#d739e5"] ;
136 -> 137 ;
138 [label=<gini = 0.0<br/>samples = 50<br/>value = [50, 0, 0, 0]<br/>class = Bed>, fillcolor="#e58139"] ;
136 -> 138 ;
139 [label=<RSSI &le; -64.25<br/>gini = 0.138<br/>samples = 5404<br/>value = [5009, 102, 0, 293]<br/>class = Bed>, fillcolor="#e78b48"] ;
83 -> 139 ;
140 [label=<frontal acc &le; 0.161<br/>gini = 0.348<br/>samples = 676<br/>value = [529, 13, 0, 134]<br/>class = Bed>, fillcolor="#eca36f"] ;
139 -> 140 ;
141 [label=<lateral acc &le; 0.049<br/>gini = 0.511<br/>samples = 87<br/>value = [44, 1, 0, 42]<br/>class = Bed>, fillcolor="#fef9f6"] ;
140 -> 141 ;
142 [label=<frequency &le; 925.5<br/>gini = 0.305<br/>samples = 32<br/>value = [26, 0, 0, 6]<br/>class = Bed>, fillcolor="#eb9e67"] ;
141 -> 142 ;
143 [label=<vertical acc &le; 0.939<br/>gini = 0.231<br/>samples = 30<br/>value = [26, 0, 0, 4]<br/>class = Bed>, fillcolor="#e99457"] ;
142 -> 143 ;
144 [label=<frontal acc &le; -0.097<br/>gini = 0.5<br/>samples = 6<br/>value = [3, 0, 0, 3]<br/>class = Bed>, fillcolor="#ffffff"] ;
143 -> 144 ;
145 [label=<gini = 0.0<br/>samples = 3<br/>value = [0, 0, 0, 3]<br/>class = Ambulating>, fillcolor="#d739e5"] ;
144 -> 145 ;
146 [label=<gini = 0.0<br/>samples = 3<br/>value = [3, 0, 0, 0]<br/>class = Bed>, fillcolor="#e58139"] ;
144 -> 146 ;
147 [label=<RSSI &le; -68.0<br/>gini = 0.08<br/>samples = 24<br/>value = [23, 0, 0, 1]<br/>class = Bed>, fillcolor="#e68642"] ;
143 -> 147 ;
148 [label=<gini = 0.0<br/>samples = 1<br/>value = [0, 0, 0, 1]<br/>class = Ambulating>, fillcolor="#d739e5"] ;
147 -> 148 ;
149 [label=<gini = 0.0<br/>samples = 23<br/>value = [23, 0, 0, 0]<br/>class = Bed>, fillcolor="#e58139"] ;
147 -> 149 ;
150 [label=<gini = 0.0<br/>samples = 2<br/>value = [0, 0, 0, 2]<br/>class = Ambulating>, fillcolor="#d739e5"] ;
142 -> 150 ;
151 [label=<phase &le; 1.526<br/>gini = 0.464<br/>samples = 55<br/>value = [18, 1, 0, 36]<br/>class = Ambulating>, fillcolor="#ec9ff2"] ;
141 -> 151 ;
152 [label=<lateral acc &le; 0.06<br/>gini = 0.153<br/>samples = 12<br/>value = [11, 1, 0, 0]<br/>class = Bed>, fillcolor="#e78c4b"] ;
151 -> 152 ;
153 [label=<gini = 0.0<br/>samples = 1<br/>value = [0, 1, 0, 0]<br/>class = Chair>, fillcolor="#47e539"] ;
152 -> 153 ;
154 [label=<gini = 0.0<br/>samples = 11<br/>value = [11, 0, 0, 0]<br/>class = Bed>, fillcolor="#e58139"] ;
152 -> 154 ;
155 [label=<frequency &le; 921.75<br/>gini = 0.273<br/>samples = 43<br/>value = [7, 0, 0, 36]<br/>class = Ambulating>, fillcolor="#df5fea"] ;
151 -> 155 ;
156 [label=<lateral acc &le; 0.072<br/>gini = 0.32<br/>samples = 5<br/>value = [4, 0, 0, 1]<br/>class = Bed>, fillcolor="#eca06a"] ;
155 -> 156 ;
157 [label=<gini = 0.0<br/>samples = 1<br/>value = [0, 0, 0, 1]<br/>class = Ambulating>, fillcolor="#d739e5"] ;
156 -> 157 ;
158 [label=<gini = 0.0<br/>samples = 4<br/>value = [4, 0, 0, 0]<br/>class = Bed>, fillcolor="#e58139"] ;
156 -> 158 ;
159 [label=<RSSI &le; -68.5<br/>gini = 0.145<br/>samples = 38<br/>value = [3, 0, 0, 35]<br/>class = Ambulating>, fillcolor="#da4ae7"] ;
155 -> 159 ;
160 [label=<gini = 0.0<br/>samples = 1<br/>value = [1, 0, 0, 0]<br/>class = Bed>, fillcolor="#e58139"] ;
159 -> 160 ;
161 [label=<lateral acc &le; 0.174<br/>gini = 0.102<br/>samples = 37<br/>value = [2, 0, 0, 35]<br/>class = Ambulating>, fillcolor="#d944e6"] ;
159 -> 161 ;
162 [label=<frontal acc &le; 0.125<br/>gini = 0.054<br/>samples = 36<br/>value = [1, 0, 0, 35]<br/>class = Ambulating>, fillcolor="#d83fe6"] ;
161 -> 162 ;
163 [label=<gini = 0.0<br/>samples = 32<br/>value = [0, 0, 0, 32]<br/>class = Ambulating>, fillcolor="#d739e5"] ;
162 -> 163 ;
164 [label=<RSSI &le; -67.0<br/>gini = 0.375<br/>samples = 4<br/>value = [1, 0, 0, 3]<br/>class = Ambulating>, fillcolor="#e47bee"] ;
162 -> 164 ;
165 [label=<gini = 0.0<br/>samples = 2<br/>value = [0, 0, 0, 2]<br/>class = Ambulating>, fillcolor="#d739e5"] ;
164 -> 165 ;
166 [label=<vertical acc &le; 1.025<br/>gini = 0.5<br/>samples = 2<br/>value = [1, 0, 0, 1]<br/>class = Bed>, fillcolor="#ffffff"] ;
164 -> 166 ;
167 [label=<gini = 0.0<br/>samples = 1<br/>value = [1, 0, 0, 0]<br/>class = Bed>, fillcolor="#e58139"] ;
166 -> 167 ;
168 [label=<gini = 0.0<br/>samples = 1<br/>value = [0, 0, 0, 1]<br/>class = Ambulating>, fillcolor="#d739e5"] ;
166 -> 168 ;
169 [label=<gini = 0.0<br/>samples = 1<br/>value = [1, 0, 0, 0]<br/>class = Bed>, fillcolor="#e58139"] ;
161 -> 169 ;
170 [label=<lateral acc &le; -0.076<br/>gini = 0.297<br/>samples = 589<br/>value = [485, 12, 0, 92]<br/>class = Bed>, fillcolor="#ea9b62"] ;
140 -> 170 ;
171 [label=<phase &le; 1.055<br/>gini = 0.478<br/>samples = 38<br/>value = [15, 0, 0, 23]<br/>class = Ambulating>, fillcolor="#f1baf6"] ;
170 -> 171 ;
172 [label=<frontal acc &le; 0.378<br/>gini = 0.095<br/>samples = 20<br/>value = [1, 0, 0, 19]<br/>class = Ambulating>, fillcolor="#d943e6"] ;
171 -> 172 ;
173 [label=<gini = 0.0<br/>samples = 19<br/>value = [0, 0, 0, 19]<br/>class = Ambulating>, fillcolor="#d739e5"] ;
172 -> 173 ;
174 [label=<gini = 0.0<br/>samples = 1<br/>value = [1, 0, 0, 0]<br/>class = Bed>, fillcolor="#e58139"] ;
172 -> 174 ;
175 [label=<frequency &le; 922.5<br/>gini = 0.346<br/>samples = 18<br/>value = [14, 0, 0, 4]<br/>class = Bed>, fillcolor="#eca572"] ;
171 -> 175 ;
176 [label=<gini = 0.0<br/>samples = 3<br/>value = [0, 0, 0, 3]<br/>class = Ambulating>, fillcolor="#d739e5"] ;
175 -> 176 ;
177 [label=<frontal acc &le; 0.372<br/>gini = 0.124<br/>samples = 15<br/>value = [14, 0, 0, 1]<br/>class = Bed>, fillcolor="#e78a47"] ;
175 -> 177 ;
178 [label=<gini = 0.0<br/>samples = 13<br/>value = [13, 0, 0, 0]<br/>class = Bed>, fillcolor="#e58139"] ;
177 -> 178 ;
179 [label=<phase &le; 2.972<br/>gini = 0.5<br/>samples = 2<br/>value = [1, 0, 0, 1]<br/>class = Bed>, fillcolor="#ffffff"] ;
177 -> 179 ;
180 [label=<gini = 0.0<br/>samples = 1<br/>value = [0, 0, 0, 1]<br/>class = Ambulating>, fillcolor="#d739e5"] ;
179 -> 180 ;
181 [label=<gini = 0.0<br/>samples = 1<br/>value = [1, 0, 0, 0]<br/>class = Bed>, fillcolor="#e58139"] ;
179 -> 181 ;
182 [label=<frontal acc &le; 0.383<br/>gini = 0.256<br/>samples = 551<br/>value = [470, 12, 0, 69]<br/>class = Bed>, fillcolor="#e9965a"] ;
170 -> 182 ;
183 [label=<lateral acc &le; -0.031<br/>gini = 0.112<br/>samples = 368<br/>value = [346, 0, 0, 22]<br/>class = Bed>, fillcolor="#e78946"] ;
182 -> 183 ;
184 [label=<frontal acc &le; 0.36<br/>gini = 0.436<br/>samples = 28<br/>value = [19, 0, 0, 9]<br/>class = Bed>, fillcolor="#f1bd97"] ;
183 -> 184 ;
185 [label=<lateral acc &le; -0.048<br/>gini = 0.236<br/>samples = 22<br/>value = [19, 0, 0, 3]<br/>class = Bed>, fillcolor="#e99558"] ;
184 -> 185 ;
186 [label=<frequency &le; 922.75<br/>gini = 0.095<br/>samples = 20<br/>value = [19, 0, 0, 1]<br/>class = Bed>, fillcolor="#e68843"] ;
185 -> 186 ;
187 [label=<gini = 0.0<br/>samples = 1<br/>value = [0, 0, 0, 1]<br/>class = Ambulating>, fillcolor="#d739e5"] ;
186 -> 187 ;
188 [label=<gini = 0.0<br/>samples = 19<br/>value = [19, 0, 0, 0]<br/>class = Bed>, fillcolor="#e58139"] ;
186 -> 188 ;
189 [label=<gini = 0.0<br/>samples = 2<br/>value = [0, 0, 0, 2]<br/>class = Ambulating>, fillcolor="#d739e5"] ;
185 -> 189 ;
190 [label=<gini = 0.0<br/>samples = 6<br/>value = [0, 0, 0, 6]<br/>class = Ambulating>, fillcolor="#d739e5"] ;
184 -> 190 ;
191 [label=<phase &le; 6.084<br/>gini = 0.074<br/>samples = 340<br/>value = [327, 0, 0, 13]<br/>class = Bed>, fillcolor="#e68641"] ;
183 -> 191 ;
192 [label=<vertical acc &le; 0.922<br/>gini = 0.038<br/>samples = 312<br/>value = [306, 0, 0, 6]<br/>class = Bed>, fillcolor="#e6833d"] ;
191 -> 192 ;
193 [label=<phase &le; 3.679<br/>gini = 0.346<br/>samples = 9<br/>value = [7, 0, 0, 2]<br/>class = Bed>, fillcolor="#eca572"] ;
192 -> 193 ;
194 [label=<gini = 0.0<br/>samples = 6<br/>value = [6, 0, 0, 0]<br/>class = Bed>, fillcolor="#e58139"] ;
193 -> 194 ;
195 [label=<frontal acc &le; 0.366<br/>gini = 0.444<br/>samples = 3<br/>value = [1, 0, 0, 2]<br/>class = Ambulating>, fillcolor="#eb9cf2"] ;
193 -> 195 ;
196 [label=<gini = 0.0<br/>samples = 2<br/>value = [0, 0, 0, 2]<br/>class = Ambulating>, fillcolor="#d739e5"] ;
195 -> 196 ;
197 [label=<gini = 0.0<br/>samples = 1<br/>value = [1, 0, 0, 0]<br/>class = Bed>, fillcolor="#e58139"] ;
195 -> 197 ;
198 [label=<lateral acc &le; 0.049<br/>gini = 0.026<br/>samples = 303<br/>value = [299, 0, 0, 4]<br/>class = Bed>, fillcolor="#e5833c"] ;
192 -> 198 ;
199 [label=<vertical acc &le; 0.957<br/>gini = 0.087<br/>samples = 88<br/>value = [84, 0, 0, 4]<br/>class = Bed>, fillcolor="#e68742"] ;
198 -> 199 ;
200 [label=<gini = 0.0<br/>samples = 1<br/>value = [0, 0, 0, 1]<br/>class = Ambulating>, fillcolor="#d739e5"] ;
199 -> 200 ;
201 [label=<frequency &le; 925.25<br/>gini = 0.067<br/>samples = 87<br/>value = [84, 0, 0, 3]<br/>class = Bed>, fillcolor="#e68640"] ;
199 -> 201 ;
202 [label=<frequency &le; 920.5<br/>gini = 0.046<br/>samples = 84<br/>value = [82, 0, 0, 2]<br/>class = Bed>, fillcolor="#e6843e"] ;
201 -> 202 ;
203 [label=<frontal acc &le; 0.307<br/>gini = 0.278<br/>samples = 6<br/>value = [5, 0, 0, 1]<br/>class = Bed>, fillcolor="#ea9a61"] ;
202 -> 203 ;
204 [label=<gini = 0.0<br/>samples = 5<br/>value = [5, 0, 0, 0]<br/>class = Bed>, fillcolor="#e58139"] ;
203 -> 204 ;
205 [label=<gini = 0.0<br/>samples = 1<br/>value = [0, 0, 0, 1]<br/>class = Ambulating>, fillcolor="#d739e5"] ;
203 -> 205 ;
206 [label=<RSSI &le; -64.75<br/>gini = 0.025<br/>samples = 78<br/>value = [77, 0, 0, 1]<br/>class = Bed>, fillcolor="#e5833c"] ;
202 -> 206 ;
207 [label=<gini = 0.0<br/>samples = 65<br/>value = [65, 0, 0, 0]<br/>class = Bed>, fillcolor="#e58139"] ;
206 -> 207 ;
208 [label=<phase &le; 2.441<br/>gini = 0.142<br/>samples = 13<br/>value = [12, 0, 0, 1]<br/>class = Bed>, fillcolor="#e78c49"] ;
206 -> 208 ;
209 [label=<gini = 0.0<br/>samples = 12<br/>value = [12, 0, 0, 0]<br/>class = Bed>, fillcolor="#e58139"] ;
208 -> 209 ;
210 [label=<gini = 0.0<br/>samples = 1<br/>value = [0, 0, 0, 1]<br/>class = Ambulating>, fillcolor="#d739e5"] ;
208 -> 210 ;
211 [label=<frontal acc &le; 0.237<br/>gini = 0.444<br/>samples = 3<br/>value = [2, 0, 0, 1]<br/>class = Bed>, fillcolor="#f2c09c"] ;
201 -> 211 ;
212 [label=<gini = 0.0<br/>samples = 2<br/>value = [2, 0, 0, 0]<br/>class = Bed>, fillcolor="#e58139"] ;
211 -> 212 ;
213 [label=<gini = 0.0<br/>samples = 1<br/>value = [0, 0, 0, 1]<br/>class = Ambulating>, fillcolor="#d739e5"] ;
211 -> 213 ;
214 [label=<gini = 0.0<br/>samples = 215<br/>value = [215, 0, 0, 0]<br/>class = Bed>, fillcolor="#e58139"] ;
198 -> 214 ;
215 [label=<phase &le; 6.092<br/>gini = 0.375<br/>samples = 28<br/>value = [21, 0, 0, 7]<br/>class = Bed>, fillcolor="#eeab7b"] ;
191 -> 215 ;
216 [label=<gini = 0.0<br/>samples = 6<br/>value = [0, 0, 0, 6]<br/>class = Ambulating>, fillcolor="#d739e5"] ;
215 -> 216 ;
217 [label=<phase &le; 6.265<br/>gini = 0.087<br/>samples = 22<br/>value = [21, 0, 0, 1]<br/>class = Bed>, fillcolor="#e68742"] ;
215 -> 217 ;
218 [label=<gini = 0.0<br/>samples = 21<br/>value = [21, 0, 0, 0]<br/>class = Bed>, fillcolor="#e58139"] ;
217 -> 218 ;
219 [label=<gini = 0.0<br/>samples = 1<br/>value = [0, 0, 0, 1]<br/>class = Ambulating>, fillcolor="#d739e5"] ;
217 -> 219 ;
220 [label=<lateral acc &le; 0.003<br/>gini = 0.471<br/>samples = 183<br/>value = [124, 12, 0, 47]<br/>class = Bed>, fillcolor="#f0b88f"] ;
182 -> 220 ;
221 [label=<RSSI &le; -65.75<br/>gini = 0.093<br/>samples = 41<br/>value = [39, 0, 0, 2]<br/>class = Bed>, fillcolor="#e68743"] ;
220 -> 221 ;
222 [label=<gini = 0.0<br/>samples = 36<br/>value = [36, 0, 0, 0]<br/>class = Bed>, fillcolor="#e58139"] ;
221 -> 222 ;
223 [label=<frequency &le; 923.25<br/>gini = 0.48<br/>samples = 5<br/>value = [3, 0, 0, 2]<br/>class = Bed>, fillcolor="#f6d5bd"] ;
221 -> 223 ;
224 [label=<gini = 0.0<br/>samples = 2<br/>value = [0, 0, 0, 2]<br/>class = Ambulating>, fillcolor="#d739e5"] ;
223 -> 224 ;
225 [label=<gini = 0.0<br/>samples = 3<br/>value = [3, 0, 0, 0]<br/>class = Bed>, fillcolor="#e58139"] ;
223 -> 225 ;
226 [label=<lateral acc &le; 0.06<br/>gini = 0.534<br/>samples = 142<br/>value = [85, 12, 0, 45]<br/>class = Bed>, fillcolor="#f4cbad"] ;
220 -> 226 ;
227 [label=<phase &le; 5.989<br/>gini = 0.607<br/>samples = 35<br/>value = [11, 6, 0, 18]<br/>class = Ambulating>, fillcolor="#f3c5f7"] ;
226 -> 227 ;
228 [label=<frontal acc &le; 0.465<br/>gini = 0.471<br/>samples = 29<br/>value = [11, 0, 0, 18]<br/>class = Ambulating>, fillcolor="#efb2f5"] ;
227 -> 228 ;
229 [label=<RSSI &le; -64.75<br/>gini = 0.457<br/>samples = 17<br/>value = [11, 0, 0, 6]<br/>class = Bed>, fillcolor="#f3c6a5"] ;
228 -> 229 ;
230 [label=<gini = 0.0<br/>samples = 11<br/>value = [11, 0, 0, 0]<br/>class = Bed>, fillcolor="#e58139"] ;
229 -> 230 ;
231 [label=<gini = 0.0<br/>samples = 6<br/>value = [0, 0, 0, 6]<br/>class = Ambulating>, fillcolor="#d739e5"] ;
229 -> 231 ;
232 [label=<gini = 0.0<br/>samples = 12<br/>value = [0, 0, 0, 12]<br/>class = Ambulating>, fillcolor="#d739e5"] ;
228 -> 232 ;
233 [label=<gini = 0.0<br/>samples = 6<br/>value = [0, 6, 0, 0]<br/>class = Chair>, fillcolor="#47e539"] ;
227 -> 233 ;
234 [label=<frontal acc &le; 0.442<br/>gini = 0.455<br/>samples = 107<br/>value = [74, 6, 0, 27]<br/>class = Bed>, fillcolor="#f0b58b"] ;
226 -> 234 ;
235 [label=<frontal acc &le; 0.419<br/>gini = 0.491<br/>samples = 60<br/>value = [34, 0, 0, 26]<br/>class = Bed>, fillcolor="#f9e1d0"] ;
234 -> 235 ;
236 [label=<lateral acc &le; 0.22<br/>gini = 0.147<br/>samples = 25<br/>value = [23, 0, 0, 2]<br/>class = Bed>, fillcolor="#e78c4a"] ;
235 -> 236 ;
237 [label=<vertical acc &le; 0.968<br/>gini = 0.08<br/>samples = 24<br/>value = [23, 0, 0, 1]<br/>class = Bed>, fillcolor="#e68642"] ;
236 -> 237 ;
238 [label=<gini = 0.0<br/>samples = 22<br/>value = [22, 0, 0, 0]<br/>class = Bed>, fillcolor="#e58139"] ;
237 -> 238 ;
239 [label=<RSSI &le; -67.0<br/>gini = 0.5<br/>samples = 2<br/>value = [1, 0, 0, 1]<br/>class = Bed>, fillcolor="#ffffff"] ;
237 -> 239 ;
240 [label=<gini = 0.0<br/>samples = 1<br/>value = [0, 0, 0, 1]<br/>class = Ambulating>, fillcolor="#d739e5"] ;
239 -> 240 ;
241 [label=<gini = 0.0<br/>samples = 1<br/>value = [1, 0, 0, 0]<br/>class = Bed>, fillcolor="#e58139"] ;
239 -> 241 ;
242 [label=<gini = 0.0<br/>samples = 1<br/>value = [0, 0, 0, 1]<br/>class = Ambulating>, fillcolor="#d739e5"] ;
236 -> 242 ;
243 [label=<lateral acc &le; 0.083<br/>gini = 0.431<br/>samples = 35<br/>value = [11, 0, 0, 24]<br/>class = Ambulating>, fillcolor="#e994f1"] ;
235 -> 243 ;
244 [label=<gini = 0.0<br/>samples = 6<br/>value = [6, 0, 0, 0]<br/>class = Bed>, fillcolor="#e58139"] ;
243 -> 244 ;
245 [label=<RSSI &le; -68.25<br/>gini = 0.285<br/>samples = 29<br/>value = [5, 0, 0, 24]<br/>class = Ambulating>, fillcolor="#df62ea"] ;
243 -> 245 ;
246 [label=<gini = 0.0<br/>samples = 3<br/>value = [3, 0, 0, 0]<br/>class = Bed>, fillcolor="#e58139"] ;
245 -> 246 ;
247 [label=<vertical acc &le; 0.899<br/>gini = 0.142<br/>samples = 26<br/>value = [2, 0, 0, 24]<br/>class = Ambulating>, fillcolor="#da49e7"] ;
245 -> 247 ;
248 [label=<gini = 0.0<br/>samples = 1<br/>value = [1, 0, 0, 0]<br/>class = Bed>, fillcolor="#e58139"] ;
247 -> 248 ;
249 [label=<phase &le; 6.042<br/>gini = 0.077<br/>samples = 25<br/>value = [1, 0, 0, 24]<br/>class = Ambulating>, fillcolor="#d941e6"] ;
247 -> 249 ;
250 [label=<gini = 0.0<br/>samples = 24<br/>value = [0, 0, 0, 24]<br/>class = Ambulating>, fillcolor="#d739e5"] ;
249 -> 250 ;
251 [label=<gini = 0.0<br/>samples = 1<br/>value = [1, 0, 0, 0]<br/>class = Bed>, fillcolor="#e58139"] ;
249 -> 251 ;
252 [label=<lateral acc &le; 0.1<br/>gini = 0.259<br/>samples = 47<br/>value = [40, 6, 0, 1]<br/>class = Bed>, fillcolor="#e9975b"] ;
234 -> 252 ;
253 [label=<RSSI &le; -66.5<br/>gini = 0.551<br/>samples = 15<br/>value = [8, 6, 0, 1]<br/>class = Bed>, fillcolor="#f9e3d3"] ;
252 -> 253 ;
254 [label=<gini = 0.0<br/>samples = 6<br/>value = [0, 6, 0, 0]<br/>class = Chair>, fillcolor="#47e539"] ;
253 -> 254 ;
255 [label=<frequency &le; 922.0<br/>gini = 0.198<br/>samples = 9<br/>value = [8, 0, 0, 1]<br/>class = Bed>, fillcolor="#e89152"] ;
253 -> 255 ;
256 [label=<gini = 0.0<br/>samples = 8<br/>value = [8, 0, 0, 0]<br/>class = Bed>, fillcolor="#e58139"] ;
255 -> 256 ;
257 [label=<gini = 0.0<br/>samples = 1<br/>value = [0, 0, 0, 1]<br/>class = Ambulating>, fillcolor="#d739e5"] ;
255 -> 257 ;
258 [label=<gini = 0.0<br/>samples = 32<br/>value = [32, 0, 0, 0]<br/>class = Bed>, fillcolor="#e58139"] ;
252 -> 258 ;
259 [label=<frontal acc &le; 0.149<br/>gini = 0.101<br/>samples = 4728<br/>value = [4480, 89, 0, 159]<br/>class = Bed>, fillcolor="#e68844"] ;
139 -> 259 ;
260 [label=<lateral acc &le; -0.122<br/>gini = 0.317<br/>samples = 460<br/>value = [374, 22, 0, 64]<br/>class = Bed>, fillcolor="#eb9c64"] ;
259 -> 260 ;
261 [label=<gini = 0.0<br/>samples = 12<br/>value = [0, 0, 0, 12]<br/>class = Ambulating>, fillcolor="#d739e5"] ;
260 -> 261 ;
262 [label=<RSSI &le; -62.25<br/>gini = 0.287<br/>samples = 448<br/>value = [374, 22, 0, 52]<br/>class = Bed>, fillcolor="#ea995e"] ;
260 -> 262 ;
263 [label=<phase &le; 4.176<br/>gini = 0.523<br/>samples = 39<br/>value = [20, 1, 0, 18]<br/>class = Bed>, fillcolor="#fdf3ec"] ;
262 -> 263 ;
264 [label=<lateral acc &le; 0.152<br/>gini = 0.381<br/>samples = 21<br/>value = [4, 1, 0, 16]<br/>class = Ambulating>, fillcolor="#e373ed"] ;
263 -> 264 ;
265 [label=<frontal acc &le; 0.108<br/>gini = 0.204<br/>samples = 18<br/>value = [1, 1, 0, 16]<br/>class = Ambulating>, fillcolor="#dc50e8"] ;
264 -> 265 ;
266 [label=<vertical acc &le; 1.008<br/>gini = 0.111<br/>samples = 17<br/>value = [1, 0, 0, 16]<br/>class = Ambulating>, fillcolor="#da45e7"] ;
265 -> 266 ;
267 [label=<gini = 0.0<br/>samples = 15<br/>value = [0, 0, 0, 15]<br/>class = Ambulating>, fillcolor="#d739e5"] ;
266 -> 267 ;
268 [label=<vertical acc &le; 1.031<br/>gini = 0.5<br/>samples = 2<br/>value = [1, 0, 0, 1]<br/>class = Bed>, fillcolor="#ffffff"] ;
266 -> 268 ;
269 [label=<gini = 0.0<br/>samples = 1<br/>value = [1, 0, 0, 0]<br/>class = Bed>, fillcolor="#e58139"] ;
268 -> 269 ;
270 [label=<gini = 0.0<br/>samples = 1<br/>value = [0, 0, 0, 1]<br/>class = Ambulating>, fillcolor="#d739e5"] ;
268 -> 270 ;
271 [label=<gini = 0.0<br/>samples = 1<br/>value = [0, 1, 0, 0]<br/>class = Chair>, fillcolor="#47e539"] ;
265 -> 271 ;
272 [label=<gini = 0.0<br/>samples = 3<br/>value = [3, 0, 0, 0]<br/>class = Bed>, fillcolor="#e58139"] ;
264 -> 272 ;
273 [label=<vertical acc &le; 0.957<br/>gini = 0.198<br/>samples = 18<br/>value = [16, 0, 0, 2]<br/>class = Bed>, fillcolor="#e89152"] ;
263 -> 273 ;
274 [label=<gini = 0.0<br/>samples = 14<br/>value = [14, 0, 0, 0]<br/>class = Bed>, fillcolor="#e58139"] ;
273 -> 274 ;
275 [label=<phase &le; 5.155<br/>gini = 0.5<br/>samples = 4<br/>value = [2, 0, 0, 2]<br/>class = Bed>, fillcolor="#ffffff"] ;
273 -> 275 ;
276 [label=<gini = 0.0<br/>samples = 2<br/>value = [2, 0, 0, 0]<br/>class = Bed>, fillcolor="#e58139"] ;
275 -> 276 ;
277 [label=<gini = 0.0<br/>samples = 2<br/>value = [0, 0, 0, 2]<br/>class = Ambulating>, fillcolor="#d739e5"] ;
275 -> 277 ;
278 [label=<lateral acc &le; 0.095<br/>gini = 0.241<br/>samples = 409<br/>value = [354, 21, 0, 34]<br/>class = Bed>, fillcolor="#e99356"] ;
262 -> 278 ;
279 [label=<vertical acc &le; 0.934<br/>gini = 0.094<br/>samples = 244<br/>value = [232, 3, 0, 9]<br/>class = Bed>, fillcolor="#e68743"] ;
278 -> 279 ;
280 [label=<frontal acc &le; 0.055<br/>gini = 0.455<br/>samples = 20<br/>value = [13, 0, 0, 7]<br/>class = Bed>, fillcolor="#f3c5a4"] ;
279 -> 280 ;
281 [label=<vertical acc &le; 0.905<br/>gini = 0.153<br/>samples = 12<br/>value = [11, 0, 0, 1]<br/>class = Bed>, fillcolor="#e78c4b"] ;
280 -> 281 ;
282 [label=<frontal acc &le; -0.109<br/>gini = 0.444<br/>samples = 3<br/>value = [2, 0, 0, 1]<br/>class = Bed>, fillcolor="#f2c09c"] ;
281 -> 282 ;
283 [label=<gini = 0.0<br/>samples = 1<br/>value = [0, 0, 0, 1]<br/>class = Ambulating>, fillcolor="#d739e5"] ;
282 -> 283 ;
284 [label=<gini = 0.0<br/>samples = 2<br/>value = [2, 0, 0, 0]<br/>class = Bed>, fillcolor="#e58139"] ;
282 -> 284 ;
285 [label=<gini = 0.0<br/>samples = 9<br/>value = [9, 0, 0, 0]<br/>class = Bed>, fillcolor="#e58139"] ;
281 -> 285 ;
286 [label=<vertical acc &le; 0.905<br/>gini = 0.375<br/>samples = 8<br/>value = [2, 0, 0, 6]<br/>class = Ambulating>, fillcolor="#e47bee"] ;
280 -> 286 ;
287 [label=<gini = 0.0<br/>samples = 2<br/>value = [2, 0, 0, 0]<br/>class = Bed>, fillcolor="#e58139"] ;
286 -> 287 ;
288 [label=<gini = 0.0<br/>samples = 6<br/>value = [0, 0, 0, 6]<br/>class = Ambulating>, fillcolor="#d739e5"] ;
286 -> 288 ;
289 [label=<lateral acc &le; -0.025<br/>gini = 0.044<br/>samples = 224<br/>value = [219, 3, 0, 2]<br/>class = Bed>, fillcolor="#e6843d"] ;
279 -> 289 ;
290 [label=<vertical acc &le; 1.002<br/>gini = 0.625<br/>samples = 4<br/>value = [1, 2, 0, 1]<br/>class = Chair>, fillcolor="#c2f6bd"] ;
289 -> 290 ;
291 [label=<vertical acc &le; 0.957<br/>gini = 0.5<br/>samples = 2<br/>value = [1, 0, 0, 1]<br/>class = Bed>, fillcolor="#ffffff"] ;
290 -> 291 ;
292 [label=<gini = 0.0<br/>samples = 1<br/>value = [1, 0, 0, 0]<br/>class = Bed>, fillcolor="#e58139"] ;
291 -> 292 ;
293 [label=<gini = 0.0<br/>samples = 1<br/>value = [0, 0, 0, 1]<br/>class = Ambulating>, fillcolor="#d739e5"] ;
291 -> 293 ;
294 [label=<gini = 0.0<br/>samples = 2<br/>value = [0, 2, 0, 0]<br/>class = Chair>, fillcolor="#47e539"] ;
290 -> 294 ;
295 [label=<frequency &le; 921.0<br/>gini = 0.018<br/>samples = 220<br/>value = [218, 1, 0, 1]<br/>class = Bed>, fillcolor="#e5823b"] ;
289 -> 295 ;
296 [label=<frontal acc &le; 0.032<br/>gini = 0.375<br/>samples = 4<br/>value = [3, 0, 0, 1]<br/>class = Bed>, fillcolor="#eeab7b"] ;
295 -> 296 ;
297 [label=<gini = 0.0<br/>samples = 3<br/>value = [3, 0, 0, 0]<br/>class = Bed>, fillcolor="#e58139"] ;
296 -> 297 ;
298 [label=<gini = 0.0<br/>samples = 1<br/>value = [0, 0, 0, 1]<br/>class = Ambulating>, fillcolor="#d739e5"] ;
296 -> 298 ;
299 [label=<frontal acc &le; 0.061<br/>gini = 0.009<br/>samples = 216<br/>value = [215, 1, 0, 0]<br/>class = Bed>, fillcolor="#e5823a"] ;
295 -> 299 ;
300 [label=<gini = 0.0<br/>samples = 153<br/>value = [153, 0, 0, 0]<br/>class = Bed>, fillcolor="#e58139"] ;
299 -> 300 ;
301 [label=<frontal acc &le; 0.084<br/>gini = 0.031<br/>samples = 63<br/>value = [62, 1, 0, 0]<br/>class = Bed>, fillcolor="#e5833c"] ;
299 -> 301 ;
302 [label=<frequency &le; 923.75<br/>gini = 0.245<br/>samples = 7<br/>value = [6, 1, 0, 0]<br/>class = Bed>, fillcolor="#e9965a"] ;
301 -> 302 ;
303 [label=<gini = 0.0<br/>samples = 1<br/>value = [0, 1, 0, 0]<br/>class = Chair>, fillcolor="#47e539"] ;
302 -> 303 ;
304 [label=<gini = 0.0<br/>samples = 6<br/>value = [6, 0, 0, 0]<br/>class = Bed>, fillcolor="#e58139"] ;
302 -> 304 ;
305 [label=<gini = 0.0<br/>samples = 56<br/>value = [56, 0, 0, 0]<br/>class = Bed>, fillcolor="#e58139"] ;
301 -> 305 ;
306 [label=<phase &le; 0.482<br/>gini = 0.418<br/>samples = 165<br/>value = [122, 18, 0, 25]<br/>class = Bed>, fillcolor="#eda876"] ;
278 -> 306 ;
307 [label=<phase &le; 0.357<br/>gini = 0.487<br/>samples = 31<br/>value = [18, 0, 0, 13]<br/>class = Bed>, fillcolor="#f8dcc8"] ;
306 -> 307 ;
308 [label=<gini = 0.0<br/>samples = 16<br/>value = [16, 0, 0, 0]<br/>class = Bed>, fillcolor="#e58139"] ;
307 -> 308 ;
309 [label=<lateral acc &le; 0.203<br/>gini = 0.231<br/>samples = 15<br/>value = [2, 0, 0, 13]<br/>class = Ambulating>, fillcolor="#dd57e9"] ;
307 -> 309 ;
310 [label=<RSSI &le; -59.25<br/>gini = 0.133<br/>samples = 14<br/>value = [1, 0, 0, 13]<br/>class = Ambulating>, fillcolor="#da48e7"] ;
309 -> 310 ;
311 [label=<gini = 0.0<br/>samples = 13<br/>value = [0, 0, 0, 13]<br/>class = Ambulating>, fillcolor="#d739e5"] ;
310 -> 311 ;
312 [label=<gini = 0.0<br/>samples = 1<br/>value = [1, 0, 0, 0]<br/>class = Bed>, fillcolor="#e58139"] ;
310 -> 312 ;
313 [label=<gini = 0.0<br/>samples = 1<br/>value = [1, 0, 0, 0]<br/>class = Bed>, fillcolor="#e58139"] ;
309 -> 313 ;
314 [label=<frontal acc &le; 0.043<br/>gini = 0.372<br/>samples = 134<br/>value = [104, 18, 0, 12]<br/>class = Bed>, fillcolor="#eca26c"] ;
306 -> 314 ;
315 [label=<lateral acc &le; 0.254<br/>gini = 0.281<br/>samples = 92<br/>value = [77, 3, 0, 12]<br/>class = Bed>, fillcolor="#ea995e"] ;
314 -> 315 ;
316 [label=<frequency &le; 921.5<br/>gini = 0.225<br/>samples = 88<br/>value = [77, 3, 0, 8]<br/>class = Bed>, fillcolor="#e99254"] ;
315 -> 316 ;
317 [label=<RSSI &le; -58.75<br/>gini = 0.457<br/>samples = 17<br/>value = [11, 0, 0, 6]<br/>class = Bed>, fillcolor="#f3c6a5"] ;
316 -> 317 ;
318 [label=<gini = 0.0<br/>samples = 6<br/>value = [0, 0, 0, 6]<br/>class = Ambulating>, fillcolor="#d739e5"] ;
317 -> 318 ;
319 [label=<gini = 0.0<br/>samples = 11<br/>value = [11, 0, 0, 0]<br/>class = Bed>, fillcolor="#e58139"] ;
317 -> 319 ;
320 [label=<RSSI &le; -61.25<br/>gini = 0.133<br/>samples = 71<br/>value = [66, 3, 0, 2]<br/>class = Bed>, fillcolor="#e78a48"] ;
316 -> 320 ;
321 [label=<gini = 0.0<br/>samples = 1<br/>value = [0, 0, 0, 1]<br/>class = Ambulating>, fillcolor="#d739e5"] ;
320 -> 321 ;
322 [label=<lateral acc &le; 0.174<br/>gini = 0.109<br/>samples = 70<br/>value = [66, 3, 0, 1]<br/>class = Bed>, fillcolor="#e78945"] ;
320 -> 322 ;
323 [label=<frequency &le; 924.0<br/>gini = 0.059<br/>samples = 66<br/>value = [64, 1, 0, 1]<br/>class = Bed>, fillcolor="#e6853f"] ;
322 -> 323 ;
324 [label=<RSSI &le; -59.75<br/>gini = 0.119<br/>samples = 32<br/>value = [30, 1, 0, 1]<br/>class = Bed>, fillcolor="#e78946"] ;
323 -> 324 ;
325 [label=<lateral acc &le; 0.129<br/>gini = 0.5<br/>samples = 2<br/>value = [1, 0, 0, 1]<br/>class = Bed>, fillcolor="#ffffff"] ;
324 -> 325 ;
326 [label=<gini = 0.0<br/>samples = 1<br/>value = [0, 0, 0, 1]<br/>class = Ambulating>, fillcolor="#d739e5"] ;
325 -> 326 ;
327 [label=<gini = 0.0<br/>samples = 1<br/>value = [1, 0, 0, 0]<br/>class = Bed>, fillcolor="#e58139"] ;
325 -> 327 ;
328 [label=<frequency &le; 923.5<br/>gini = 0.064<br/>samples = 30<br/>value = [29, 1, 0, 0]<br/>class = Bed>, fillcolor="#e68540"] ;
324 -> 328 ;
329 [label=<gini = 0.0<br/>samples = 22<br/>value = [22, 0, 0, 0]<br/>class = Bed>, fillcolor="#e58139"] ;
328 -> 329 ;
330 [label=<frontal acc &le; -0.086<br/>gini = 0.219<br/>samples = 8<br/>value = [7, 1, 0, 0]<br/>class = Bed>, fillcolor="#e99355"] ;
328 -> 330 ;
331 [label=<phase &le; 1.768<br/>gini = 0.444<br/>samples = 3<br/>value = [2, 1, 0, 0]<br/>class = Bed>, fillcolor="#f2c09c"] ;
330 -> 331 ;
332 [label=<gini = 0.0<br/>samples = 2<br/>value = [2, 0, 0, 0]<br/>class = Bed>, fillcolor="#e58139"] ;
331 -> 332 ;
333 [label=<gini = 0.0<br/>samples = 1<br/>value = [0, 1, 0, 0]<br/>class = Chair>, fillcolor="#47e539"] ;
331 -> 333 ;
334 [label=<gini = 0.0<br/>samples = 5<br/>value = [5, 0, 0, 0]<br/>class = Bed>, fillcolor="#e58139"] ;
330 -> 334 ;
335 [label=<gini = 0.0<br/>samples = 34<br/>value = [34, 0, 0, 0]<br/>class = Bed>, fillcolor="#e58139"] ;
323 -> 335 ;
336 [label=<phase &le; 0.942<br/>gini = 0.5<br/>samples = 4<br/>value = [2, 2, 0, 0]<br/>class = Bed>, fillcolor="#ffffff"] ;
322 -> 336 ;
337 [label=<gini = 0.0<br/>samples = 1<br/>value = [0, 1, 0, 0]<br/>class = Chair>, fillcolor="#47e539"] ;
336 -> 337 ;
338 [label=<RSSI &le; -59.25<br/>gini = 0.444<br/>samples = 3<br/>value = [2, 1, 0, 0]<br/>class = Bed>, fillcolor="#f2c09c"] ;
336 -> 338 ;
339 [label=<gini = 0.0<br/>samples = 1<br/>value = [0, 1, 0, 0]<br/>class = Chair>, fillcolor="#47e539"] ;
338 -> 339 ;
340 [label=<gini = 0.0<br/>samples = 2<br/>value = [2, 0, 0, 0]<br/>class = Bed>, fillcolor="#e58139"] ;
338 -> 340 ;
341 [label=<gini = 0.0<br/>samples = 4<br/>value = [0, 0, 0, 4]<br/>class = Ambulating>, fillcolor="#d739e5"] ;
315 -> 341 ;
342 [label=<frequency &le; 924.0<br/>gini = 0.459<br/>samples = 42<br/>value = [27, 15, 0, 0]<br/>class = Bed>, fillcolor="#f3c7a7"] ;
314 -> 342 ;
343 [label=<frequency &le; 922.5<br/>gini = 0.153<br/>samples = 24<br/>value = [22, 2, 0, 0]<br/>class = Bed>, fillcolor="#e78c4b"] ;
342 -> 343 ;
344 [label=<gini = 0.0<br/>samples = 15<br/>value = [15, 0, 0, 0]<br/>class = Bed>, fillcolor="#e58139"] ;
343 -> 344 ;
345 [label=<phase &le; 5.186<br/>gini = 0.346<br/>samples = 9<br/>value = [7, 2, 0, 0]<br/>class = Bed>, fillcolor="#eca572"] ;
343 -> 345 ;
346 [label=<RSSI &le; -59.75<br/>gini = 0.219<br/>samples = 8<br/>value = [7, 1, 0, 0]<br/>class = Bed>, fillcolor="#e99355"] ;
345 -> 346 ;
347 [label=<lateral acc &le; 0.152<br/>gini = 0.444<br/>samples = 3<br/>value = [2, 1, 0, 0]<br/>class = Bed>, fillcolor="#f2c09c"] ;
346 -> 347 ;
348 [label=<gini = 0.0<br/>samples = 1<br/>value = [0, 1, 0, 0]<br/>class = Chair>, fillcolor="#47e539"] ;
347 -> 348 ;
349 [label=<gini = 0.0<br/>samples = 2<br/>value = [2, 0, 0, 0]<br/>class = Bed>, fillcolor="#e58139"] ;
347 -> 349 ;
350 [label=<gini = 0.0<br/>samples = 5<br/>value = [5, 0, 0, 0]<br/>class = Bed>, fillcolor="#e58139"] ;
346 -> 350 ;
351 [label=<gini = 0.0<br/>samples = 1<br/>value = [0, 1, 0, 0]<br/>class = Chair>, fillcolor="#47e539"] ;
345 -> 351 ;
352 [label=<phase &le; 6.231<br/>gini = 0.401<br/>samples = 18<br/>value = [5, 13, 0, 0]<br/>class = Chair>, fillcolor="#8eef85"] ;
342 -> 352 ;
353 [label=<frequency &le; 925.0<br/>gini = 0.305<br/>samples = 16<br/>value = [3, 13, 0, 0]<br/>class = Chair>, fillcolor="#71eb67"] ;
352 -> 353 ;
354 [label=<lateral acc &le; 0.135<br/>gini = 0.5<br/>samples = 6<br/>value = [3, 3, 0, 0]<br/>class = Bed>, fillcolor="#ffffff"] ;
353 -> 354 ;
355 [label=<gini = 0.0<br/>samples = 2<br/>value = [2, 0, 0, 0]<br/>class = Bed>, fillcolor="#e58139"] ;
354 -> 355 ;
356 [label=<vertical acc &le; 0.899<br/>gini = 0.375<br/>samples = 4<br/>value = [1, 3, 0, 0]<br/>class = Chair>, fillcolor="#84ee7b"] ;
354 -> 356 ;
357 [label=<gini = 0.0<br/>samples = 1<br/>value = [1, 0, 0, 0]<br/>class = Bed>, fillcolor="#e58139"] ;
356 -> 357 ;
358 [label=<gini = 0.0<br/>samples = 3<br/>value = [0, 3, 0, 0]<br/>class = Chair>, fillcolor="#47e539"] ;
356 -> 358 ;
359 [label=<gini = 0.0<br/>samples = 10<br/>value = [0, 10, 0, 0]<br/>class = Chair>, fillcolor="#47e539"] ;
353 -> 359 ;
360 [label=<gini = 0.0<br/>samples = 2<br/>value = [2, 0, 0, 0]<br/>class = Bed>, fillcolor="#e58139"] ;
352 -> 360 ;
361 [label=<vertical acc &le; 0.922<br/>gini = 0.074<br/>samples = 4268<br/>value = [4106, 67, 0, 95]<br/>class = Bed>, fillcolor="#e68641"] ;
259 -> 361 ;
362 [label=<frequency &le; 924.5<br/>gini = 0.219<br/>samples = 669<br/>value = [588, 25, 0, 56]<br/>class = Bed>, fillcolor="#e89253"] ;
361 -> 362 ;
363 [label=<frontal acc &le; 0.442<br/>gini = 0.142<br/>samples = 465<br/>value = [430, 10, 0, 25]<br/>class = Bed>, fillcolor="#e78b49"] ;
362 -> 363 ;
364 [label=<lateral acc &le; 0.129<br/>gini = 0.252<br/>samples = 174<br/>value = [149, 4, 0, 21]<br/>class = Bed>, fillcolor="#e99659"] ;
363 -> 364 ;
365 [label=<frontal acc &le; 0.43<br/>gini = 0.496<br/>samples = 46<br/>value = [25, 0, 0, 21]<br/>class = Bed>, fillcolor="#fbebdf"] ;
364 -> 365 ;
366 [label=<lateral acc &le; 0.032<br/>gini = 0.397<br/>samples = 33<br/>value = [24, 0, 0, 9]<br/>class = Bed>, fillcolor="#efb083"] ;
365 -> 366 ;
367 [label=<RSSI &le; -60.75<br/>gini = 0.459<br/>samples = 14<br/>value = [5, 0, 0, 9]<br/>class = Ambulating>, fillcolor="#eda7f3"] ;
366 -> 367 ;
368 [label=<gini = 0.0<br/>samples = 7<br/>value = [0, 0, 0, 7]<br/>class = Ambulating>, fillcolor="#d739e5"] ;
367 -> 368 ;
369 [label=<lateral acc &le; -0.036<br/>gini = 0.408<br/>samples = 7<br/>value = [5, 0, 0, 2]<br/>class = Bed>, fillcolor="#efb388"] ;
367 -> 369 ;
370 [label=<gini = 0.0<br/>samples = 2<br/>value = [0, 0, 0, 2]<br/>class = Ambulating>, fillcolor="#d739e5"] ;
369 -> 370 ;
371 [label=<gini = 0.0<br/>samples = 5<br/>value = [5, 0, 0, 0]<br/>class = Bed>, fillcolor="#e58139"] ;
369 -> 371 ;
372 [label=<gini = 0.0<br/>samples = 19<br/>value = [19, 0, 0, 0]<br/>class = Bed>, fillcolor="#e58139"] ;
366 -> 372 ;
373 [label=<lateral acc &le; 0.066<br/>gini = 0.142<br/>samples = 13<br/>value = [1, 0, 0, 12]<br/>class = Ambulating>, fillcolor="#da49e7"] ;
365 -> 373 ;
374 [label=<gini = 0.0<br/>samples = 1<br/>value = [1, 0, 0, 0]<br/>class = Bed>, fillcolor="#e58139"] ;
373 -> 374 ;
375 [label=<gini = 0.0<br/>samples = 12<br/>value = [0, 0, 0, 12]<br/>class = Ambulating>, fillcolor="#d739e5"] ;
373 -> 375 ;
376 [label=<phase &le; 6.249<br/>gini = 0.061<br/>samples = 128<br/>value = [124, 4, 0, 0]<br/>class = Bed>, fillcolor="#e6853f"] ;
364 -> 376 ;
377 [label=<frontal acc &le; 0.43<br/>gini = 0.046<br/>samples = 126<br/>value = [123, 3, 0, 0]<br/>class = Bed>, fillcolor="#e6843e"] ;
376 -> 377 ;
378 [label=<gini = 0.0<br/>samples = 100<br/>value = [100, 0, 0, 0]<br/>class = Bed>, fillcolor="#e58139"] ;
377 -> 378 ;
379 [label=<RSSI &le; -58.75<br/>gini = 0.204<br/>samples = 26<br/>value = [23, 3, 0, 0]<br/>class = Bed>, fillcolor="#e89153"] ;
377 -> 379 ;
380 [label=<frequency &le; 920.5<br/>gini = 0.08<br/>samples = 24<br/>value = [23, 1, 0, 0]<br/>class = Bed>, fillcolor="#e68642"] ;
379 -> 380 ;
381 [label=<RSSI &le; -59.25<br/>gini = 0.5<br/>samples = 2<br/>value = [1, 1, 0, 0]<br/>class = Bed>, fillcolor="#ffffff"] ;
380 -> 381 ;
382 [label=<gini = 0.0<br/>samples = 1<br/>value = [0, 1, 0, 0]<br/>class = Chair>, fillcolor="#47e539"] ;
381 -> 382 ;
383 [label=<gini = 0.0<br/>samples = 1<br/>value = [1, 0, 0, 0]<br/>class = Bed>, fillcolor="#e58139"] ;
381 -> 383 ;
384 [label=<gini = 0.0<br/>samples = 22<br/>value = [22, 0, 0, 0]<br/>class = Bed>, fillcolor="#e58139"] ;
380 -> 384 ;
385 [label=<gini = 0.0<br/>samples = 2<br/>value = [0, 2, 0, 0]<br/>class = Chair>, fillcolor="#47e539"] ;
379 -> 385 ;
386 [label=<frequency &le; 922.5<br/>gini = 0.5<br/>samples = 2<br/>value = [1, 1, 0, 0]<br/>class = Bed>, fillcolor="#ffffff"] ;
376 -> 386 ;
387 [label=<gini = 0.0<br/>samples = 1<br/>value = [0, 1, 0, 0]<br/>class = Chair>, fillcolor="#47e539"] ;
386 -> 387 ;
388 [label=<gini = 0.0<br/>samples = 1<br/>value = [1, 0, 0, 0]<br/>class = Bed>, fillcolor="#e58139"] ;
386 -> 388 ;
389 [label=<lateral acc &le; -0.008<br/>gini = 0.067<br/>samples = 291<br/>value = [281, 6, 0, 4]<br/>class = Bed>, fillcolor="#e68540"] ;
363 -> 389 ;
390 [label=<lateral acc &le; -0.031<br/>gini = 0.346<br/>samples = 18<br/>value = [14, 4, 0, 0]<br/>class = Bed>, fillcolor="#eca572"] ;
389 -> 390 ;
391 [label=<gini = 0.0<br/>samples = 12<br/>value = [12, 0, 0, 0]<br/>class = Bed>, fillcolor="#e58139"] ;
390 -> 391 ;
392 [label=<RSSI &le; -61.75<br/>gini = 0.444<br/>samples = 6<br/>value = [2, 4, 0, 0]<br/>class = Chair>, fillcolor="#a3f29c"] ;
390 -> 392 ;
393 [label=<gini = 0.0<br/>samples = 2<br/>value = [2, 0, 0, 0]<br/>class = Bed>, fillcolor="#e58139"] ;
392 -> 393 ;
394 [label=<gini = 0.0<br/>samples = 4<br/>value = [0, 4, 0, 0]<br/>class = Chair>, fillcolor="#47e539"] ;
392 -> 394 ;
395 [label=<vertical acc &le; 0.888<br/>gini = 0.043<br/>samples = 273<br/>value = [267, 2, 0, 4]<br/>class = Bed>, fillcolor="#e6843d"] ;
389 -> 395 ;
396 [label=<frontal acc &le; 0.465<br/>gini = 0.355<br/>samples = 13<br/>value = [10, 0, 0, 3]<br/>class = Bed>, fillcolor="#eda774"] ;
395 -> 396 ;
397 [label=<gini = 0.0<br/>samples = 2<br/>value = [0, 0, 0, 2]<br/>class = Ambulating>, fillcolor="#d739e5"] ;
396 -> 397 ;
398 [label=<lateral acc &le; 0.106<br/>gini = 0.165<br/>samples = 11<br/>value = [10, 0, 0, 1]<br/>class = Bed>, fillcolor="#e88e4d"] ;
396 -> 398 ;
399 [label=<gini = 0.0<br/>samples = 1<br/>value = [0, 0, 0, 1]<br/>class = Ambulating>, fillcolor="#d739e5"] ;
398 -> 399 ;
400 [label=<gini = 0.0<br/>samples = 10<br/>value = [10, 0, 0, 0]<br/>class = Bed>, fillcolor="#e58139"] ;
398 -> 400 ;
401 [label=<phase &le; 1.078<br/>gini = 0.023<br/>samples = 260<br/>value = [257, 2, 0, 1]<br/>class = Bed>, fillcolor="#e5823b"] ;
395 -> 401 ;
402 [label=<phase &le; 0.937<br/>gini = 0.098<br/>samples = 59<br/>value = [56, 2, 0, 1]<br/>class = Bed>, fillcolor="#e68843"] ;
401 -> 402 ;
403 [label=<RSSI &le; -59.25<br/>gini = 0.067<br/>samples = 58<br/>value = [56, 2, 0, 0]<br/>class = Bed>, fillcolor="#e68640"] ;
402 -> 403 ;
404 [label=<gini = 0.0<br/>samples = 44<br/>value = [44, 0, 0, 0]<br/>class = Bed>, fillcolor="#e58139"] ;
403 -> 404 ;
405 [label=<lateral acc &le; 0.117<br/>gini = 0.245<br/>samples = 14<br/>value = [12, 2, 0, 0]<br/>class = Bed>, fillcolor="#e9965a"] ;
403 -> 405 ;
406 [label=<lateral acc &le; 0.06<br/>gini = 0.5<br/>samples = 4<br/>value = [2, 2, 0, 0]<br/>class = Bed>, fillcolor="#ffffff"] ;
405 -> 406 ;
407 [label=<gini = 0.0<br/>samples = 2<br/>value = [2, 0, 0, 0]<br/>class = Bed>, fillcolor="#e58139"] ;
406 -> 407 ;
408 [label=<gini = 0.0<br/>samples = 2<br/>value = [0, 2, 0, 0]<br/>class = Chair>, fillcolor="#47e539"] ;
406 -> 408 ;
409 [label=<gini = 0.0<br/>samples = 10<br/>value = [10, 0, 0, 0]<br/>class = Bed>, fillcolor="#e58139"] ;
405 -> 409 ;
410 [label=<gini = 0.0<br/>samples = 1<br/>value = [0, 0, 0, 1]<br/>class = Ambulating>, fillcolor="#d739e5"] ;
402 -> 410 ;
411 [label=<gini = 0.0<br/>samples = 201<br/>value = [201, 0, 0, 0]<br/>class = Bed>, fillcolor="#e58139"] ;
401 -> 411 ;
412 [label=<phase &le; 2.294<br/>gini = 0.372<br/>samples = 204<br/>value = [158, 15, 0, 31]<br/>class = Bed>, fillcolor="#eca36e"] ;
362 -> 412 ;
413 [label=<RSSI &le; -60.75<br/>gini = 0.527<br/>samples = 93<br/>value = [58, 10, 0, 25]<br/>class = Bed>, fillcolor="#f2c29f"] ;
412 -> 413 ;
414 [label=<phase &le; 0.048<br/>gini = 0.233<br/>samples = 52<br/>value = [45, 0, 0, 7]<br/>class = Bed>, fillcolor="#e99558"] ;
413 -> 414 ;
415 [label=<gini = 0.0<br/>samples = 6<br/>value = [0, 0, 0, 6]<br/>class = Ambulating>, fillcolor="#d739e5"] ;
414 -> 415 ;
416 [label=<lateral acc &le; -0.111<br/>gini = 0.043<br/>samples = 46<br/>value = [45, 0, 0, 1]<br/>class = Bed>, fillcolor="#e6843d"] ;
414 -> 416 ;
417 [label=<gini = 0.0<br/>samples = 1<br/>value = [0, 0, 0, 1]<br/>class = Ambulating>, fillcolor="#d739e5"] ;
416 -> 417 ;
418 [label=<gini = 0.0<br/>samples = 45<br/>value = [45, 0, 0, 0]<br/>class = Bed>, fillcolor="#e58139"] ;
416 -> 418 ;
419 [label=<phase &le; 2.077<br/>gini = 0.647<br/>samples = 41<br/>value = [13, 10, 0, 18]<br/>class = Ambulating>, fillcolor="#f8dcfa"] ;
413 -> 419 ;
420 [label=<frontal acc &le; 0.501<br/>gini = 0.637<br/>samples = 29<br/>value = [13, 10, 0, 6]<br/>class = Bed>, fillcolor="#fbebe0"] ;
419 -> 420 ;
421 [label=<vertical acc &le; 0.899<br/>gini = 0.582<br/>samples = 23<br/>value = [13, 4, 0, 6]<br/>class = Bed>, fillcolor="#f4cbad"] ;
420 -> 421 ;
422 [label=<RSSI &le; -60.0<br/>gini = 0.56<br/>samples = 10<br/>value = [2, 2, 0, 6]<br/>class = Ambulating>, fillcolor="#eb9cf2"] ;
421 -> 422 ;
423 [label=<phase &le; 0.73<br/>gini = 0.375<br/>samples = 8<br/>value = [2, 0, 0, 6]<br/>class = Ambulating>, fillcolor="#e47bee"] ;
422 -> 423 ;
424 [label=<gini = 0.0<br/>samples = 6<br/>value = [0, 0, 0, 6]<br/>class = Ambulating>, fillcolor="#d739e5"] ;
423 -> 424 ;
425 [label=<gini = 0.0<br/>samples = 2<br/>value = [2, 0, 0, 0]<br/>class = Bed>, fillcolor="#e58139"] ;
423 -> 425 ;
426 [label=<gini = 0.0<br/>samples = 2<br/>value = [0, 2, 0, 0]<br/>class = Chair>, fillcolor="#47e539"] ;
422 -> 426 ;
427 [label=<frequency &le; 925.5<br/>gini = 0.26<br/>samples = 13<br/>value = [11, 2, 0, 0]<br/>class = Bed>, fillcolor="#ea985d"] ;
421 -> 427 ;
428 [label=<phase &le; 0.303<br/>gini = 0.165<br/>samples = 11<br/>value = [10, 1, 0, 0]<br/>class = Bed>, fillcolor="#e88e4d"] ;
427 -> 428 ;
429 [label=<phase &le; 0.229<br/>gini = 0.375<br/>samples = 4<br/>value = [3, 1, 0, 0]<br/>class = Bed>, fillcolor="#eeab7b"] ;
428 -> 429 ;
430 [label=<gini = 0.0<br/>samples = 3<br/>value = [3, 0, 0, 0]<br/>class = Bed>, fillcolor="#e58139"] ;
429 -> 430 ;
431 [label=<gini = 0.0<br/>samples = 1<br/>value = [0, 1, 0, 0]<br/>class = Chair>, fillcolor="#47e539"] ;
429 -> 431 ;
432 [label=<gini = 0.0<br/>samples = 7<br/>value = [7, 0, 0, 0]<br/>class = Bed>, fillcolor="#e58139"] ;
428 -> 432 ;
433 [label=<lateral acc &le; 0.192<br/>gini = 0.5<br/>samples = 2<br/>value = [1, 1, 0, 0]<br/>class = Bed>, fillcolor="#ffffff"] ;
427 -> 433 ;
434 [label=<gini = 0.0<br/>samples = 1<br/>value = [1, 0, 0, 0]<br/>class = Bed>, fillcolor="#e58139"] ;
433 -> 434 ;
435 [label=<gini = 0.0<br/>samples = 1<br/>value = [0, 1, 0, 0]<br/>class = Chair>, fillcolor="#47e539"] ;
433 -> 435 ;
436 [label=<gini = 0.0<br/>samples = 6<br/>value = [0, 6, 0, 0]<br/>class = Chair>, fillcolor="#47e539"] ;
420 -> 436 ;
437 [label=<gini = 0.0<br/>samples = 12<br/>value = [0, 0, 0, 12]<br/>class = Ambulating>, fillcolor="#d739e5"] ;
419 -> 437 ;
438 [label=<lateral acc &le; 0.203<br/>gini = 0.183<br/>samples = 111<br/>value = [100, 5, 0, 6]<br/>class = Bed>, fillcolor="#e88e4e"] ;
412 -> 438 ;
439 [label=<lateral acc &le; -0.065<br/>gini = 0.087<br/>samples = 88<br/>value = [84, 4, 0, 0]<br/>class = Bed>, fillcolor="#e68742"] ;
438 -> 439 ;
440 [label=<gini = 0.0<br/>samples = 1<br/>value = [0, 1, 0, 0]<br/>class = Chair>, fillcolor="#47e539"] ;
439 -> 440 ;
441 [label=<lateral acc &le; 0.003<br/>gini = 0.067<br/>samples = 87<br/>value = [84, 3, 0, 0]<br/>class = Bed>, fillcolor="#e68640"] ;
439 -> 441 ;
442 [label=<lateral acc &le; -0.019<br/>gini = 0.32<br/>samples = 10<br/>value = [8, 2, 0, 0]<br/>class = Bed>, fillcolor="#eca06a"] ;
441 -> 442 ;
443 [label=<gini = 0.0<br/>samples = 7<br/>value = [7, 0, 0, 0]<br/>class = Bed>, fillcolor="#e58139"] ;
442 -> 443 ;
444 [label=<phase &le; 3.544<br/>gini = 0.444<br/>samples = 3<br/>value = [1, 2, 0, 0]<br/>class = Chair>, fillcolor="#a3f29c"] ;
442 -> 444 ;
445 [label=<gini = 0.0<br/>samples = 1<br/>value = [1, 0, 0, 0]<br/>class = Bed>, fillcolor="#e58139"] ;
444 -> 445 ;
446 [label=<gini = 0.0<br/>samples = 2<br/>value = [0, 2, 0, 0]<br/>class = Chair>, fillcolor="#47e539"] ;
444 -> 446 ;
447 [label=<RSSI &le; -58.75<br/>gini = 0.026<br/>samples = 77<br/>value = [76, 1, 0, 0]<br/>class = Bed>, fillcolor="#e5833c"] ;
441 -> 447 ;
448 [label=<gini = 0.0<br/>samples = 70<br/>value = [70, 0, 0, 0]<br/>class = Bed>, fillcolor="#e58139"] ;
447 -> 448 ;
449 [label=<frequency &le; 925.25<br/>gini = 0.245<br/>samples = 7<br/>value = [6, 1, 0, 0]<br/>class = Bed>, fillcolor="#e9965a"] ;
447 -> 449 ;
450 [label=<gini = 0.0<br/>samples = 5<br/>value = [5, 0, 0, 0]<br/>class = Bed>, fillcolor="#e58139"] ;
449 -> 450 ;
451 [label=<vertical acc &le; 0.905<br/>gini = 0.5<br/>samples = 2<br/>value = [1, 1, 0, 0]<br/>class = Bed>, fillcolor="#ffffff"] ;
449 -> 451 ;
452 [label=<gini = 0.0<br/>samples = 1<br/>value = [0, 1, 0, 0]<br/>class = Chair>, fillcolor="#47e539"] ;
451 -> 452 ;
453 [label=<gini = 0.0<br/>samples = 1<br/>value = [1, 0, 0, 0]<br/>class = Bed>, fillcolor="#e58139"] ;
451 -> 453 ;
454 [label=<lateral acc &le; 0.22<br/>gini = 0.446<br/>samples = 23<br/>value = [16, 1, 0, 6]<br/>class = Bed>, fillcolor="#f0b58b"] ;
438 -> 454 ;
455 [label=<frequency &le; 925.25<br/>gini = 0.406<br/>samples = 8<br/>value = [1, 1, 0, 6]<br/>class = Ambulating>, fillcolor="#e272ec"] ;
454 -> 455 ;
456 [label=<gini = 0.0<br/>samples = 6<br/>value = [0, 0, 0, 6]<br/>class = Ambulating>, fillcolor="#d739e5"] ;
455 -> 456 ;
457 [label=<frontal acc &le; 0.372<br/>gini = 0.5<br/>samples = 2<br/>value = [1, 1, 0, 0]<br/>class = Bed>, fillcolor="#ffffff"] ;
455 -> 457 ;
458 [label=<gini = 0.0<br/>samples = 1<br/>value = [1, 0, 0, 0]<br/>class = Bed>, fillcolor="#e58139"] ;
457 -> 458 ;
459 [label=<gini = 0.0<br/>samples = 1<br/>value = [0, 1, 0, 0]<br/>class = Chair>, fillcolor="#47e539"] ;
457 -> 459 ;
460 [label=<gini = 0.0<br/>samples = 15<br/>value = [15, 0, 0, 0]<br/>class = Bed>, fillcolor="#e58139"] ;
454 -> 460 ;
461 [label=<frontal acc &le; 0.477<br/>gini = 0.044<br/>samples = 3599<br/>value = [3518, 42, 0, 39]<br/>class = Bed>, fillcolor="#e6843e"] ;
361 -> 461 ;
462 [label=<frequency &le; 925.0<br/>gini = 0.039<br/>samples = 3559<br/>value = [3488, 34, 0, 37]<br/>class = Bed>, fillcolor="#e6843d"] ;
461 -> 462 ;
463 [label=<frontal acc &le; 0.172<br/>gini = 0.027<br/>samples = 3090<br/>value = [3048, 14, 0, 28]<br/>class = Bed>, fillcolor="#e5833c"] ;
462 -> 463 ;
464 [label=<lateral acc &le; 0.095<br/>gini = 0.102<br/>samples = 130<br/>value = [123, 0, 0, 7]<br/>class = Bed>, fillcolor="#e68844"] ;
463 -> 464 ;
465 [label=<RSSI &le; -63.0<br/>gini = 0.018<br/>samples = 113<br/>value = [112, 0, 0, 1]<br/>class = Bed>, fillcolor="#e5823b"] ;
464 -> 465 ;
466 [label=<phase &le; 2.711<br/>gini = 0.5<br/>samples = 2<br/>value = [1, 0, 0, 1]<br/>class = Bed>, fillcolor="#ffffff"] ;
465 -> 466 ;
467 [label=<gini = 0.0<br/>samples = 1<br/>value = [0, 0, 0, 1]<br/>class = Ambulating>, fillcolor="#d739e5"] ;
466 -> 467 ;
468 [label=<gini = 0.0<br/>samples = 1<br/>value = [1, 0, 0, 0]<br/>class = Bed>, fillcolor="#e58139"] ;
466 -> 468 ;
469 [label=<gini = 0.0<br/>samples = 111<br/>value = [111, 0, 0, 0]<br/>class = Bed>, fillcolor="#e58139"] ;
465 -> 469 ;
470 [label=<lateral acc &le; 0.112<br/>gini = 0.457<br/>samples = 17<br/>value = [11, 0, 0, 6]<br/>class = Bed>, fillcolor="#f3c6a5"] ;
464 -> 470 ;
471 [label=<gini = 0.0<br/>samples = 6<br/>value = [0, 0, 0, 6]<br/>class = Ambulating>, fillcolor="#d739e5"] ;
470 -> 471 ;
472 [label=<gini = 0.0<br/>samples = 11<br/>value = [11, 0, 0, 0]<br/>class = Bed>, fillcolor="#e58139"] ;
470 -> 472 ;
473 [label=<RSSI &le; -58.75<br/>gini = 0.023<br/>samples = 2960<br/>value = [2925, 14, 0, 21]<br/>class = Bed>, fillcolor="#e5833b"] ;
463 -> 473 ;
474 [label=<lateral acc &le; 0.026<br/>gini = 0.014<br/>samples = 2381<br/>value = [2364, 3, 0, 14]<br/>class = Bed>, fillcolor="#e5823a"] ;
473 -> 474 ;
475 [label=<vertical acc &le; 1.002<br/>gini = 0.026<br/>samples = 922<br/>value = [910, 0, 0, 12]<br/>class = Bed>, fillcolor="#e5833c"] ;
474 -> 475 ;
476 [label=<frontal acc &le; 0.237<br/>gini = 0.05<br/>samples = 427<br/>value = [416, 0, 0, 11]<br/>class = Bed>, fillcolor="#e6843e"] ;
475 -> 476 ;
477 [label=<vertical acc &le; 0.968<br/>gini = 0.5<br/>samples = 4<br/>value = [2, 0, 0, 2]<br/>class = Bed>, fillcolor="#ffffff"] ;
476 -> 477 ;
478 [label=<gini = 0.0<br/>samples = 2<br/>value = [2, 0, 0, 0]<br/>class = Bed>, fillcolor="#e58139"] ;
477 -> 478 ;
479 [label=<gini = 0.0<br/>samples = 2<br/>value = [0, 0, 0, 2]<br/>class = Ambulating>, fillcolor="#d739e5"] ;
477 -> 479 ;
480 [label=<frequency &le; 922.5<br/>gini = 0.042<br/>samples = 423<br/>value = [414, 0, 0, 9]<br/>class = Bed>, fillcolor="#e6843d"] ;
476 -> 480 ;
481 [label=<phase &le; 5.094<br/>gini = 0.009<br/>samples = 232<br/>value = [231, 0, 0, 1]<br/>class = Bed>, fillcolor="#e5823a"] ;
480 -> 481 ;
482 [label=<gini = 0.0<br/>samples = 182<br/>value = [182, 0, 0, 0]<br/>class = Bed>, fillcolor="#e58139"] ;
481 -> 482 ;
483 [label=<phase &le; 5.191<br/>gini = 0.039<br/>samples = 50<br/>value = [49, 0, 0, 1]<br/>class = Bed>, fillcolor="#e6843d"] ;
481 -> 483 ;
484 [label=<gini = 0.0<br/>samples = 1<br/>value = [0, 0, 0, 1]<br/>class = Ambulating>, fillcolor="#d739e5"] ;
483 -> 484 ;
485 [label=<gini = 0.0<br/>samples = 49<br/>value = [49, 0, 0, 0]<br/>class = Bed>, fillcolor="#e58139"] ;
483 -> 485 ;
486 [label=<frequency &le; 923.5<br/>gini = 0.08<br/>samples = 191<br/>value = [183, 0, 0, 8]<br/>class = Bed>, fillcolor="#e68742"] ;
480 -> 486 ;
487 [label=<phase &le; 0.072<br/>gini = 0.153<br/>samples = 84<br/>value = [77, 0, 0, 7]<br/>class = Bed>, fillcolor="#e78c4b"] ;
486 -> 487 ;
488 [label=<gini = 0.0<br/>samples = 1<br/>value = [0, 0, 0, 1]<br/>class = Ambulating>, fillcolor="#d739e5"] ;
487 -> 488 ;
489 [label=<phase &le; 1.23<br/>gini = 0.134<br/>samples = 83<br/>value = [77, 0, 0, 6]<br/>class = Bed>, fillcolor="#e78b48"] ;
487 -> 489 ;
490 [label=<phase &le; 0.703<br/>gini = 0.355<br/>samples = 13<br/>value = [10, 0, 0, 3]<br/>class = Bed>, fillcolor="#eda774"] ;
489 -> 490 ;
491 [label=<vertical acc &le; 0.991<br/>gini = 0.18<br/>samples = 10<br/>value = [9, 0, 0, 1]<br/>class = Bed>, fillcolor="#e88f4f"] ;
490 -> 491 ;
492 [label=<gini = 0.0<br/>samples = 9<br/>value = [9, 0, 0, 0]<br/>class = Bed>, fillcolor="#e58139"] ;
491 -> 492 ;
493 [label=<gini = 0.0<br/>samples = 1<br/>value = [0, 0, 0, 1]<br/>class = Ambulating>, fillcolor="#d739e5"] ;
491 -> 493 ;
494 [label=<frequency &le; 923.0<br/>gini = 0.444<br/>samples = 3<br/>value = [1, 0, 0, 2]<br/>class = Ambulating>, fillcolor="#eb9cf2"] ;
490 -> 494 ;
495 [label=<gini = 0.0<br/>samples = 2<br/>value = [0, 0, 0, 2]<br/>class = Ambulating>, fillcolor="#d739e5"] ;
494 -> 495 ;
496 [label=<gini = 0.0<br/>samples = 1<br/>value = [1, 0, 0, 0]<br/>class = Bed>, fillcolor="#e58139"] ;
494 -> 496 ;
497 [label=<lateral acc &le; -0.031<br/>gini = 0.082<br/>samples = 70<br/>value = [67, 0, 0, 3]<br/>class = Bed>, fillcolor="#e68742"] ;
489 -> 497 ;
498 [label=<gini = 0.0<br/>samples = 36<br/>value = [36, 0, 0, 0]<br/>class = Bed>, fillcolor="#e58139"] ;
497 -> 498 ;
499 [label=<lateral acc &le; 0.009<br/>gini = 0.161<br/>samples = 34<br/>value = [31, 0, 0, 3]<br/>class = Bed>, fillcolor="#e88d4c"] ;
497 -> 499 ;
500 [label=<vertical acc &le; 0.98<br/>gini = 0.305<br/>samples = 16<br/>value = [13, 0, 0, 3]<br/>class = Bed>, fillcolor="#eb9e67"] ;
499 -> 500 ;
501 [label=<frontal acc &le; 0.372<br/>gini = 0.133<br/>samples = 14<br/>value = [13, 0, 0, 1]<br/>class = Bed>, fillcolor="#e78b48"] ;
500 -> 501 ;
502 [label=<vertical acc &le; 0.968<br/>gini = 0.444<br/>samples = 3<br/>value = [2, 0, 0, 1]<br/>class = Bed>, fillcolor="#f2c09c"] ;
501 -> 502 ;
503 [label=<gini = 0.0<br/>samples = 1<br/>value = [0, 0, 0, 1]<br/>class = Ambulating>, fillcolor="#d739e5"] ;
502 -> 503 ;
504 [label=<gini = 0.0<br/>samples = 2<br/>value = [2, 0, 0, 0]<br/>class = Bed>, fillcolor="#e58139"] ;
502 -> 504 ;
505 [label=<gini = 0.0<br/>samples = 11<br/>value = [11, 0, 0, 0]<br/>class = Bed>, fillcolor="#e58139"] ;
501 -> 505 ;
506 [label=<gini = 0.0<br/>samples = 2<br/>value = [0, 0, 0, 2]<br/>class = Ambulating>, fillcolor="#d739e5"] ;
500 -> 506 ;
507 [label=<gini = 0.0<br/>samples = 18<br/>value = [18, 0, 0, 0]<br/>class = Bed>, fillcolor="#e58139"] ;
499 -> 507 ;
508 [label=<phase &le; 6.141<br/>gini = 0.019<br/>samples = 107<br/>value = [106, 0, 0, 1]<br/>class = Bed>, fillcolor="#e5823b"] ;
486 -> 508 ;
509 [label=<gini = 0.0<br/>samples = 104<br/>value = [104, 0, 0, 0]<br/>class = Bed>, fillcolor="#e58139"] ;
508 -> 509 ;
510 [label=<lateral acc &le; -0.008<br/>gini = 0.444<br/>samples = 3<br/>value = [2, 0, 0, 1]<br/>class = Bed>, fillcolor="#f2c09c"] ;
508 -> 510 ;
511 [label=<gini = 0.0<br/>samples = 2<br/>value = [2, 0, 0, 0]<br/>class = Bed>, fillcolor="#e58139"] ;
510 -> 511 ;
512 [label=<gini = 0.0<br/>samples = 1<br/>value = [0, 0, 0, 1]<br/>class = Ambulating>, fillcolor="#d739e5"] ;
510 -> 512 ;
513 [label=<lateral acc &le; 0.015<br/>gini = 0.004<br/>samples = 495<br/>value = [494, 0, 0, 1]<br/>class = Bed>, fillcolor="#e58139"] ;
475 -> 513 ;
514 [label=<gini = 0.0<br/>samples = 475<br/>value = [475, 0, 0, 0]<br/>class = Bed>, fillcolor="#e58139"] ;
513 -> 514 ;
515 [label=<phase &le; 5.446<br/>gini = 0.095<br/>samples = 20<br/>value = [19, 0, 0, 1]<br/>class = Bed>, fillcolor="#e68843"] ;
513 -> 515 ;
516 [label=<gini = 0.0<br/>samples = 19<br/>value = [19, 0, 0, 0]<br/>class = Bed>, fillcolor="#e58139"] ;
515 -> 516 ;
517 [label=<gini = 0.0<br/>samples = 1<br/>value = [0, 0, 0, 1]<br/>class = Ambulating>, fillcolor="#d739e5"] ;
515 -> 517 ;
518 [label=<phase &le; 6.203<br/>gini = 0.007<br/>samples = 1459<br/>value = [1454, 3, 0, 2]<br/>class = Bed>, fillcolor="#e5813a"] ;
474 -> 518 ;
519 [label=<vertical acc &le; 1.002<br/>gini = 0.006<br/>samples = 1425<br/>value = [1421, 2, 0, 2]<br/>class = Bed>, fillcolor="#e5813a"] ;
518 -> 519 ;
520 [label=<frequency &le; 924.0<br/>gini = 0.003<br/>samples = 1292<br/>value = [1290, 2, 0, 0]<br/>class = Bed>, fillcolor="#e58139"] ;
519 -> 520 ;
521 [label=<gini = 0.0<br/>samples = 1011<br/>value = [1011, 0, 0, 0]<br/>class = Bed>, fillcolor="#e58139"] ;
520 -> 521 ;
522 [label=<RSSI &le; -59.75<br/>gini = 0.014<br/>samples = 281<br/>value = [279, 2, 0, 0]<br/>class = Bed>, fillcolor="#e5823a"] ;
520 -> 522 ;
523 [label=<gini = 0.0<br/>samples = 197<br/>value = [197, 0, 0, 0]<br/>class = Bed>, fillcolor="#e58139"] ;
522 -> 523 ;
524 [label=<vertical acc &le; 0.968<br/>gini = 0.046<br/>samples = 84<br/>value = [82, 2, 0, 0]<br/>class = Bed>, fillcolor="#e6843e"] ;
522 -> 524 ;
525 [label=<gini = 0.0<br/>samples = 60<br/>value = [60, 0, 0, 0]<br/>class = Bed>, fillcolor="#e58139"] ;
524 -> 525 ;
526 [label=<lateral acc &le; 0.072<br/>gini = 0.153<br/>samples = 24<br/>value = [22, 2, 0, 0]<br/>class = Bed>, fillcolor="#e78c4b"] ;
524 -> 526 ;
527 [label=<lateral acc &le; 0.055<br/>gini = 0.5<br/>samples = 4<br/>value = [2, 2, 0, 0]<br/>class = Bed>, fillcolor="#ffffff"] ;
526 -> 527 ;
528 [label=<gini = 0.0<br/>samples = 2<br/>value = [2, 0, 0, 0]<br/>class = Bed>, fillcolor="#e58139"] ;
527 -> 528 ;
529 [label=<gini = 0.0<br/>samples = 2<br/>value = [0, 2, 0, 0]<br/>class = Chair>, fillcolor="#47e539"] ;
527 -> 529 ;
530 [label=<gini = 0.0<br/>samples = 20<br/>value = [20, 0, 0, 0]<br/>class = Bed>, fillcolor="#e58139"] ;
526 -> 530 ;
531 [label=<frontal acc &le; 0.342<br/>gini = 0.03<br/>samples = 133<br/>value = [131, 0, 0, 2]<br/>class = Bed>, fillcolor="#e5833c"] ;
519 -> 531 ;
532 [label=<gini = 0.0<br/>samples = 125<br/>value = [125, 0, 0, 0]<br/>class = Bed>, fillcolor="#e58139"] ;
531 -> 532 ;
533 [label=<lateral acc &le; 0.06<br/>gini = 0.375<br/>samples = 8<br/>value = [6, 0, 0, 2]<br/>class = Bed>, fillcolor="#eeab7b"] ;
531 -> 533 ;
534 [label=<gini = 0.0<br/>samples = 6<br/>value = [6, 0, 0, 0]<br/>class = Bed>, fillcolor="#e58139"] ;
533 -> 534 ;
535 [label=<gini = 0.0<br/>samples = 2<br/>value = [0, 0, 0, 2]<br/>class = Ambulating>, fillcolor="#d739e5"] ;
533 -> 535 ;
536 [label=<frontal acc &le; 0.196<br/>gini = 0.057<br/>samples = 34<br/>value = [33, 1, 0, 0]<br/>class = Bed>, fillcolor="#e6853f"] ;
518 -> 536 ;
537 [label=<gini = 0.0<br/>samples = 1<br/>value = [0, 1, 0, 0]<br/>class = Chair>, fillcolor="#47e539"] ;
536 -> 537 ;
538 [label=<gini = 0.0<br/>samples = 33<br/>value = [33, 0, 0, 0]<br/>class = Bed>, fillcolor="#e58139"] ;
536 -> 538 ;
539 [label=<frequency &le; 923.0<br/>gini = 0.061<br/>samples = 579<br/>value = [561, 11, 0, 7]<br/>class = Bed>, fillcolor="#e6853f"] ;
473 -> 539 ;
540 [label=<frontal acc &le; 0.465<br/>gini = 0.012<br/>samples = 334<br/>value = [332, 1, 0, 1]<br/>class = Bed>, fillcolor="#e5823a"] ;
539 -> 540 ;
541 [label=<lateral acc &le; -0.076<br/>gini = 0.006<br/>samples = 333<br/>value = [332, 1, 0, 0]<br/>class = Bed>, fillcolor="#e5813a"] ;
540 -> 541 ;
542 [label=<frontal acc &le; 0.278<br/>gini = 0.278<br/>samples = 6<br/>value = [5, 1, 0, 0]<br/>class = Bed>, fillcolor="#ea9a61"] ;
541 -> 542 ;
543 [label=<gini = 0.0<br/>samples = 1<br/>value = [0, 1, 0, 0]<br/>class = Chair>, fillcolor="#47e539"] ;
542 -> 543 ;
544 [label=<gini = 0.0<br/>samples = 5<br/>value = [5, 0, 0, 0]<br/>class = Bed>, fillcolor="#e58139"] ;
542 -> 544 ;
545 [label=<gini = 0.0<br/>samples = 327<br/>value = [327, 0, 0, 0]<br/>class = Bed>, fillcolor="#e58139"] ;
541 -> 545 ;
546 [label=<gini = 0.0<br/>samples = 1<br/>value = [0, 0, 0, 1]<br/>class = Ambulating>, fillcolor="#d739e5"] ;
540 -> 546 ;
547 [label=<lateral acc &le; 0.152<br/>gini = 0.124<br/>samples = 245<br/>value = [229, 10, 0, 6]<br/>class = Bed>, fillcolor="#e78a46"] ;
539 -> 547 ;
548 [label=<vertical acc &le; 0.991<br/>gini = 0.098<br/>samples = 216<br/>value = [205, 5, 0, 6]<br/>class = Bed>, fillcolor="#e68843"] ;
547 -> 548 ;
549 [label=<vertical acc &le; 0.968<br/>gini = 0.139<br/>samples = 149<br/>value = [138, 5, 0, 6]<br/>class = Bed>, fillcolor="#e78b48"] ;
548 -> 549 ;
550 [label=<frequency &le; 923.5<br/>gini = 0.061<br/>samples = 96<br/>value = [93, 1, 0, 2]<br/>class = Bed>, fillcolor="#e6853f"] ;
549 -> 550 ;
551 [label=<frontal acc &le; 0.383<br/>gini = 0.26<br/>samples = 13<br/>value = [11, 0, 0, 2]<br/>class = Bed>, fillcolor="#ea985d"] ;
550 -> 551 ;
552 [label=<gini = 0.0<br/>samples = 10<br/>value = [10, 0, 0, 0]<br/>class = Bed>, fillcolor="#e58139"] ;
551 -> 552 ;
553 [label=<frontal acc &le; 0.419<br/>gini = 0.444<br/>samples = 3<br/>value = [1, 0, 0, 2]<br/>class = Ambulating>, fillcolor="#eb9cf2"] ;
551 -> 553 ;
554 [label=<gini = 0.0<br/>samples = 2<br/>value = [0, 0, 0, 2]<br/>class = Ambulating>, fillcolor="#d739e5"] ;
553 -> 554 ;
555 [label=<gini = 0.0<br/>samples = 1<br/>value = [1, 0, 0, 0]<br/>class = Bed>, fillcolor="#e58139"] ;
553 -> 555 ;
556 [label=<phase &le; 5.657<br/>gini = 0.024<br/>samples = 83<br/>value = [82, 1, 0, 0]<br/>class = Bed>, fillcolor="#e5833b"] ;
550 -> 556 ;
557 [label=<gini = 0.0<br/>samples = 79<br/>value = [79, 0, 0, 0]<br/>class = Bed>, fillcolor="#e58139"] ;
556 -> 557 ;
558 [label=<frequency &le; 924.5<br/>gini = 0.375<br/>samples = 4<br/>value = [3, 1, 0, 0]<br/>class = Bed>, fillcolor="#eeab7b"] ;
556 -> 558 ;
559 [label=<gini = 0.0<br/>samples = 3<br/>value = [3, 0, 0, 0]<br/>class = Bed>, fillcolor="#e58139"] ;
558 -> 559 ;
560 [label=<gini = 0.0<br/>samples = 1<br/>value = [0, 1, 0, 0]<br/>class = Chair>, fillcolor="#47e539"] ;
558 -> 560 ;
561 [label=<lateral acc &le; -0.071<br/>gini = 0.268<br/>samples = 53<br/>value = [45, 4, 0, 4]<br/>class = Bed>, fillcolor="#e99659"] ;
549 -> 561 ;
562 [label=<gini = 0.0<br/>samples = 1<br/>value = [0, 1, 0, 0]<br/>class = Chair>, fillcolor="#47e539"] ;
561 -> 562 ;
563 [label=<phase &le; 0.586<br/>gini = 0.242<br/>samples = 52<br/>value = [45, 3, 0, 4]<br/>class = Bed>, fillcolor="#e99356"] ;
561 -> 563 ;
564 [label=<lateral acc &le; 0.072<br/>gini = 0.571<br/>samples = 7<br/>value = [4, 1, 0, 2]<br/>class = Bed>, fillcolor="#f5cdb0"] ;
563 -> 564 ;
565 [label=<frontal acc &le; 0.26<br/>gini = 0.5<br/>samples = 2<br/>value = [0, 1, 0, 1]<br/>class = Chair>, fillcolor="#ffffff"] ;
564 -> 565 ;
566 [label=<gini = 0.0<br/>samples = 1<br/>value = [0, 0, 0, 1]<br/>class = Ambulating>, fillcolor="#d739e5"] ;
565 -> 566 ;
567 [label=<gini = 0.0<br/>samples = 1<br/>value = [0, 1, 0, 0]<br/>class = Chair>, fillcolor="#47e539"] ;
565 -> 567 ;
568 [label=<phase &le; 0.253<br/>gini = 0.32<br/>samples = 5<br/>value = [4, 0, 0, 1]<br/>class = Bed>, fillcolor="#eca06a"] ;
564 -> 568 ;
569 [label=<gini = 0.0<br/>samples = 2<br/>value = [2, 0, 0, 0]<br/>class = Bed>, fillcolor="#e58139"] ;
568 -> 569 ;
570 [label=<phase &le; 0.298<br/>gini = 0.444<br/>samples = 3<br/>value = [2, 0, 0, 1]<br/>class = Bed>, fillcolor="#f2c09c"] ;
568 -> 570 ;
571 [label=<gini = 0.0<br/>samples = 1<br/>value = [0, 0, 0, 1]<br/>class = Ambulating>, fillcolor="#d739e5"] ;
570 -> 571 ;
572 [label=<gini = 0.0<br/>samples = 2<br/>value = [2, 0, 0, 0]<br/>class = Bed>, fillcolor="#e58139"] ;
570 -> 572 ;
573 [label=<frontal acc &le; 0.378<br/>gini = 0.166<br/>samples = 45<br/>value = [41, 2, 0, 2]<br/>class = Bed>, fillcolor="#e78d4b"] ;
563 -> 573 ;
574 [label=<lateral acc &le; 0.078<br/>gini = 0.129<br/>samples = 44<br/>value = [41, 2, 0, 1]<br/>class = Bed>, fillcolor="#e78a47"] ;
573 -> 574 ;
575 [label=<gini = 0.0<br/>samples = 26<br/>value = [26, 0, 0, 0]<br/>class = Bed>, fillcolor="#e58139"] ;
574 -> 575 ;
576 [label=<lateral acc &le; 0.095<br/>gini = 0.29<br/>samples = 18<br/>value = [15, 2, 0, 1]<br/>class = Bed>, fillcolor="#ea995e"] ;
574 -> 576 ;
577 [label=<phase &le; 2.666<br/>gini = 0.5<br/>samples = 2<br/>value = [1, 1, 0, 0]<br/>class = Bed>, fillcolor="#ffffff"] ;
576 -> 577 ;
578 [label=<gini = 0.0<br/>samples = 1<br/>value = [1, 0, 0, 0]<br/>class = Bed>, fillcolor="#e58139"] ;
577 -> 578 ;
579 [label=<gini = 0.0<br/>samples = 1<br/>value = [0, 1, 0, 0]<br/>class = Chair>, fillcolor="#47e539"] ;
577 -> 579 ;
580 [label=<phase &le; 1.387<br/>gini = 0.227<br/>samples = 16<br/>value = [14, 1, 0, 1]<br/>class = Bed>, fillcolor="#e89253"] ;
576 -> 580 ;
581 [label=<vertical acc &le; 0.98<br/>gini = 0.444<br/>samples = 3<br/>value = [2, 1, 0, 0]<br/>class = Bed>, fillcolor="#f2c09c"] ;
580 -> 581 ;
582 [label=<gini = 0.0<br/>samples = 1<br/>value = [0, 1, 0, 0]<br/>class = Chair>, fillcolor="#47e539"] ;
581 -> 582 ;
583 [label=<gini = 0.0<br/>samples = 2<br/>value = [2, 0, 0, 0]<br/>class = Bed>, fillcolor="#e58139"] ;
581 -> 583 ;
584 [label=<frequency &le; 923.5<br/>gini = 0.142<br/>samples = 13<br/>value = [12, 0, 0, 1]<br/>class = Bed>, fillcolor="#e78c49"] ;
580 -> 584 ;
585 [label=<phase &le; 5.792<br/>gini = 0.32<br/>samples = 5<br/>value = [4, 0, 0, 1]<br/>class = Bed>, fillcolor="#eca06a"] ;
584 -> 585 ;
586 [label=<phase &le; 3.552<br/>gini = 0.5<br/>samples = 2<br/>value = [1, 0, 0, 1]<br/>class = Bed>, fillcolor="#ffffff"] ;
585 -> 586 ;
587 [label=<gini = 0.0<br/>samples = 1<br/>value = [1, 0, 0, 0]<br/>class = Bed>, fillcolor="#e58139"] ;
586 -> 587 ;
588 [label=<gini = 0.0<br/>samples = 1<br/>value = [0, 0, 0, 1]<br/>class = Ambulating>, fillcolor="#d739e5"] ;
586 -> 588 ;
589 [label=<gini = 0.0<br/>samples = 3<br/>value = [3, 0, 0, 0]<br/>class = Bed>, fillcolor="#e58139"] ;
585 -> 589 ;
590 [label=<gini = 0.0<br/>samples = 8<br/>value = [8, 0, 0, 0]<br/>class = Bed>, fillcolor="#e58139"] ;
584 -> 590 ;
591 [label=<gini = 0.0<br/>samples = 1<br/>value = [0, 0, 0, 1]<br/>class = Ambulating>, fillcolor="#d739e5"] ;
573 -> 591 ;
592 [label=<gini = 0.0<br/>samples = 67<br/>value = [67, 0, 0, 0]<br/>class = Bed>, fillcolor="#e58139"] ;
548 -> 592 ;
593 [label=<frontal acc &le; 0.196<br/>gini = 0.285<br/>samples = 29<br/>value = [24, 5, 0, 0]<br/>class = Bed>, fillcolor="#ea9b62"] ;
547 -> 593 ;
594 [label=<gini = 0.0<br/>samples = 1<br/>value = [0, 1, 0, 0]<br/>class = Chair>, fillcolor="#47e539"] ;
593 -> 594 ;
595 [label=<phase &le; 0.956<br/>gini = 0.245<br/>samples = 28<br/>value = [24, 4, 0, 0]<br/>class = Bed>, fillcolor="#e9965a"] ;
593 -> 595 ;
596 [label=<phase &le; 0.544<br/>gini = 0.444<br/>samples = 6<br/>value = [4, 2, 0, 0]<br/>class = Bed>, fillcolor="#f2c09c"] ;
595 -> 596 ;
597 [label=<gini = 0.0<br/>samples = 4<br/>value = [4, 0, 0, 0]<br/>class = Bed>, fillcolor="#e58139"] ;
596 -> 597 ;
598 [label=<gini = 0.0<br/>samples = 2<br/>value = [0, 2, 0, 0]<br/>class = Chair>, fillcolor="#47e539"] ;
596 -> 598 ;
599 [label=<frontal acc &le; 0.29<br/>gini = 0.165<br/>samples = 22<br/>value = [20, 2, 0, 0]<br/>class = Bed>, fillcolor="#e88e4d"] ;
595 -> 599 ;
600 [label=<frontal acc &le; 0.278<br/>gini = 0.278<br/>samples = 12<br/>value = [10, 2, 0, 0]<br/>class = Bed>, fillcolor="#ea9a61"] ;
599 -> 600 ;
601 [label=<phase &le; 5.731<br/>gini = 0.18<br/>samples = 10<br/>value = [9, 1, 0, 0]<br/>class = Bed>, fillcolor="#e88f4f"] ;
600 -> 601 ;
602 [label=<gini = 0.0<br/>samples = 7<br/>value = [7, 0, 0, 0]<br/>class = Bed>, fillcolor="#e58139"] ;
601 -> 602 ;
603 [label=<phase &le; 5.741<br/>gini = 0.444<br/>samples = 3<br/>value = [2, 1, 0, 0]<br/>class = Bed>, fillcolor="#f2c09c"] ;
601 -> 603 ;
604 [label=<gini = 0.0<br/>samples = 1<br/>value = [0, 1, 0, 0]<br/>class = Chair>, fillcolor="#47e539"] ;
603 -> 604 ;
605 [label=<gini = 0.0<br/>samples = 2<br/>value = [2, 0, 0, 0]<br/>class = Bed>, fillcolor="#e58139"] ;
603 -> 605 ;
606 [label=<frequency &le; 924.5<br/>gini = 0.5<br/>samples = 2<br/>value = [1, 1, 0, 0]<br/>class = Bed>, fillcolor="#ffffff"] ;
600 -> 606 ;
607 [label=<gini = 0.0<br/>samples = 1<br/>value = [1, 0, 0, 0]<br/>class = Bed>, fillcolor="#e58139"] ;
606 -> 607 ;
608 [label=<gini = 0.0<br/>samples = 1<br/>value = [0, 1, 0, 0]<br/>class = Chair>, fillcolor="#47e539"] ;
606 -> 608 ;
609 [label=<gini = 0.0<br/>samples = 10<br/>value = [10, 0, 0, 0]<br/>class = Bed>, fillcolor="#e58139"] ;
599 -> 609 ;
610 [label=<lateral acc &le; 0.14<br/>gini = 0.118<br/>samples = 469<br/>value = [440, 20, 0, 9]<br/>class = Bed>, fillcolor="#e78946"] ;
462 -> 610 ;
611 [label=<frontal acc &le; 0.419<br/>gini = 0.097<br/>samples = 434<br/>value = [412, 14, 0, 8]<br/>class = Bed>, fillcolor="#e68843"] ;
610 -> 611 ;
612 [label=<RSSI &le; -59.25<br/>gini = 0.075<br/>samples = 365<br/>value = [351, 7, 0, 7]<br/>class = Bed>, fillcolor="#e68641"] ;
611 -> 612 ;
613 [label=<frontal acc &le; 0.395<br/>gini = 0.029<br/>samples = 276<br/>value = [272, 0, 0, 4]<br/>class = Bed>, fillcolor="#e5833c"] ;
612 -> 613 ;
614 [label=<phase &le; 0.487<br/>gini = 0.022<br/>samples = 270<br/>value = [267, 0, 0, 3]<br/>class = Bed>, fillcolor="#e5823b"] ;
613 -> 614 ;
615 [label=<RSSI &le; -59.75<br/>gini = 0.133<br/>samples = 14<br/>value = [13, 0, 0, 1]<br/>class = Bed>, fillcolor="#e78b48"] ;
614 -> 615 ;
616 [label=<gini = 0.0<br/>samples = 13<br/>value = [13, 0, 0, 0]<br/>class = Bed>, fillcolor="#e58139"] ;
615 -> 616 ;
617 [label=<gini = 0.0<br/>samples = 1<br/>value = [0, 0, 0, 1]<br/>class = Ambulating>, fillcolor="#d739e5"] ;
615 -> 617 ;
618 [label=<phase &le; 5.838<br/>gini = 0.016<br/>samples = 256<br/>value = [254, 0, 0, 2]<br/>class = Bed>, fillcolor="#e5823b"] ;
614 -> 618 ;
619 [label=<phase &le; 1.127<br/>gini = 0.008<br/>samples = 236<br/>value = [235, 0, 0, 1]<br/>class = Bed>, fillcolor="#e5823a"] ;
618 -> 619 ;
620 [label=<phase &le; 1.097<br/>gini = 0.034<br/>samples = 58<br/>value = [57, 0, 0, 1]<br/>class = Bed>, fillcolor="#e5833c"] ;
619 -> 620 ;
621 [label=<gini = 0.0<br/>samples = 57<br/>value = [57, 0, 0, 0]<br/>class = Bed>, fillcolor="#e58139"] ;
620 -> 621 ;
622 [label=<gini = 0.0<br/>samples = 1<br/>value = [0, 0, 0, 1]<br/>class = Ambulating>, fillcolor="#d739e5"] ;
620 -> 622 ;
623 [label=<gini = 0.0<br/>samples = 178<br/>value = [178, 0, 0, 0]<br/>class = Bed>, fillcolor="#e58139"] ;
619 -> 623 ;
624 [label=<frequency &le; 925.5<br/>gini = 0.095<br/>samples = 20<br/>value = [19, 0, 0, 1]<br/>class = Bed>, fillcolor="#e68843"] ;
618 -> 624 ;
625 [label=<gini = 0.0<br/>samples = 19<br/>value = [19, 0, 0, 0]<br/>class = Bed>, fillcolor="#e58139"] ;
624 -> 625 ;
626 [label=<gini = 0.0<br/>samples = 1<br/>value = [0, 0, 0, 1]<br/>class = Ambulating>, fillcolor="#d739e5"] ;
624 -> 626 ;
627 [label=<vertical acc &le; 0.968<br/>gini = 0.278<br/>samples = 6<br/>value = [5, 0, 0, 1]<br/>class = Bed>, fillcolor="#ea9a61"] ;
613 -> 627 ;
628 [label=<gini = 0.0<br/>samples = 5<br/>value = [5, 0, 0, 0]<br/>class = Bed>, fillcolor="#e58139"] ;
627 -> 628 ;
629 [label=<gini = 0.0<br/>samples = 1<br/>value = [0, 0, 0, 1]<br/>class = Ambulating>, fillcolor="#d739e5"] ;
627 -> 629 ;
630 [label=<lateral acc &le; 0.06<br/>gini = 0.205<br/>samples = 89<br/>value = [79, 7, 0, 3]<br/>class = Bed>, fillcolor="#e89051"] ;
612 -> 630 ;
631 [label=<frequency &le; 925.5<br/>gini = 0.081<br/>samples = 71<br/>value = [68, 0, 0, 3]<br/>class = Bed>, fillcolor="#e68742"] ;
630 -> 631 ;
632 [label=<frontal acc &le; 0.372<br/>gini = 0.175<br/>samples = 31<br/>value = [28, 0, 0, 3]<br/>class = Bed>, fillcolor="#e88e4e"] ;
631 -> 632 ;
633 [label=<lateral acc &le; -0.054<br/>gini = 0.124<br/>samples = 30<br/>value = [28, 0, 0, 2]<br/>class = Bed>, fillcolor="#e78a47"] ;
632 -> 633 ;
634 [label=<vertical acc &le; 0.991<br/>gini = 0.5<br/>samples = 2<br/>value = [1, 0, 0, 1]<br/>class = Bed>, fillcolor="#ffffff"] ;
633 -> 634 ;
635 [label=<gini = 0.0<br/>samples = 1<br/>value = [1, 0, 0, 0]<br/>class = Bed>, fillcolor="#e58139"] ;
634 -> 635 ;
636 [label=<gini = 0.0<br/>samples = 1<br/>value = [0, 0, 0, 1]<br/>class = Ambulating>, fillcolor="#d739e5"] ;
634 -> 636 ;
637 [label=<frontal acc &le; 0.295<br/>gini = 0.069<br/>samples = 28<br/>value = [27, 0, 0, 1]<br/>class = Bed>, fillcolor="#e68640"] ;
633 -> 637 ;
638 [label=<gini = 0.0<br/>samples = 19<br/>value = [19, 0, 0, 0]<br/>class = Bed>, fillcolor="#e58139"] ;
637 -> 638 ;
639 [label=<vertical acc &le; 0.98<br/>gini = 0.198<br/>samples = 9<br/>value = [8, 0, 0, 1]<br/>class = Bed>, fillcolor="#e89152"] ;
637 -> 639 ;
640 [label=<gini = 0.0<br/>samples = 8<br/>value = [8, 0, 0, 0]<br/>class = Bed>, fillcolor="#e58139"] ;
639 -> 640 ;
641 [label=<gini = 0.0<br/>samples = 1<br/>value = [0, 0, 0, 1]<br/>class = Ambulating>, fillcolor="#d739e5"] ;
639 -> 641 ;
642 [label=<gini = 0.0<br/>samples = 1<br/>value = [0, 0, 0, 1]<br/>class = Ambulating>, fillcolor="#d739e5"] ;
632 -> 642 ;
643 [label=<gini = 0.0<br/>samples = 40<br/>value = [40, 0, 0, 0]<br/>class = Bed>, fillcolor="#e58139"] ;
631 -> 643 ;
644 [label=<phase &le; 1.295<br/>gini = 0.475<br/>samples = 18<br/>value = [11, 7, 0, 0]<br/>class = Bed>, fillcolor="#f6d1b7"] ;
630 -> 644 ;
645 [label=<frequency &le; 925.5<br/>gini = 0.375<br/>samples = 8<br/>value = [2, 6, 0, 0]<br/>class = Chair>, fillcolor="#84ee7b"] ;
644 -> 645 ;
646 [label=<gini = 0.0<br/>samples = 6<br/>value = [0, 6, 0, 0]<br/>class = Chair>, fillcolor="#47e539"] ;
645 -> 646 ;
647 [label=<gini = 0.0<br/>samples = 2<br/>value = [2, 0, 0, 0]<br/>class = Bed>, fillcolor="#e58139"] ;
645 -> 647 ;
648 [label=<frontal acc &le; 0.202<br/>gini = 0.18<br/>samples = 10<br/>value = [9, 1, 0, 0]<br/>class = Bed>, fillcolor="#e88f4f"] ;
644 -> 648 ;
649 [label=<gini = 0.0<br/>samples = 1<br/>value = [0, 1, 0, 0]<br/>class = Chair>, fillcolor="#47e539"] ;
648 -> 649 ;
650 [label=<gini = 0.0<br/>samples = 9<br/>value = [9, 0, 0, 0]<br/>class = Bed>, fillcolor="#e58139"] ;
648 -> 650 ;
651 [label=<vertical acc &le; 0.962<br/>gini = 0.208<br/>samples = 69<br/>value = [61, 7, 0, 1]<br/>class = Bed>, fillcolor="#e89153"] ;
611 -> 651 ;
652 [label=<phase &le; 4.211<br/>gini = 0.163<br/>samples = 67<br/>value = [61, 6, 0, 0]<br/>class = Bed>, fillcolor="#e88d4c"] ;
651 -> 652 ;
653 [label=<gini = 0.0<br/>samples = 45<br/>value = [45, 0, 0, 0]<br/>class = Bed>, fillcolor="#e58139"] ;
652 -> 653 ;
654 [label=<phase &le; 4.376<br/>gini = 0.397<br/>samples = 22<br/>value = [16, 6, 0, 0]<br/>class = Bed>, fillcolor="#efb083"] ;
652 -> 654 ;
655 [label=<gini = 0.0<br/>samples = 6<br/>value = [0, 6, 0, 0]<br/>class = Chair>, fillcolor="#47e539"] ;
654 -> 655 ;
656 [label=<gini = 0.0<br/>samples = 16<br/>value = [16, 0, 0, 0]<br/>class = Bed>, fillcolor="#e58139"] ;
654 -> 656 ;
657 [label=<RSSI &le; -60.5<br/>gini = 0.5<br/>samples = 2<br/>value = [0, 1, 0, 1]<br/>class = Chair>, fillcolor="#ffffff"] ;
651 -> 657 ;
658 [label=<gini = 0.0<br/>samples = 1<br/>value = [0, 0, 0, 1]<br/>class = Ambulating>, fillcolor="#d739e5"] ;
657 -> 658 ;
659 [label=<gini = 0.0<br/>samples = 1<br/>value = [0, 1, 0, 0]<br/>class = Chair>, fillcolor="#47e539"] ;
657 -> 659 ;
660 [label=<frontal acc &le; 0.172<br/>gini = 0.33<br/>samples = 35<br/>value = [28, 6, 0, 1]<br/>class = Bed>, fillcolor="#eb9f69"] ;
610 -> 660 ;
661 [label=<gini = 0.0<br/>samples = 2<br/>value = [0, 2, 0, 0]<br/>class = Chair>, fillcolor="#47e539"] ;
660 -> 661 ;
662 [label=<frontal acc &le; 0.407<br/>gini = 0.264<br/>samples = 33<br/>value = [28, 4, 0, 1]<br/>class = Bed>, fillcolor="#e9975b"] ;
660 -> 662 ;
663 [label=<frontal acc &le; 0.219<br/>gini = 0.225<br/>samples = 32<br/>value = [28, 3, 0, 1]<br/>class = Bed>, fillcolor="#e99254"] ;
662 -> 663 ;
664 [label=<frequency &le; 925.5<br/>gini = 0.48<br/>samples = 5<br/>value = [3, 2, 0, 0]<br/>class = Bed>, fillcolor="#f6d5bd"] ;
663 -> 664 ;
665 [label=<gini = 0.0<br/>samples = 3<br/>value = [3, 0, 0, 0]<br/>class = Bed>, fillcolor="#e58139"] ;
664 -> 665 ;
666 [label=<gini = 0.0<br/>samples = 2<br/>value = [0, 2, 0, 0]<br/>class = Chair>, fillcolor="#47e539"] ;
664 -> 666 ;
667 [label=<phase &le; 6.006<br/>gini = 0.14<br/>samples = 27<br/>value = [25, 1, 0, 1]<br/>class = Bed>, fillcolor="#e78b48"] ;
663 -> 667 ;
668 [label=<RSSI &le; -58.75<br/>gini = 0.077<br/>samples = 25<br/>value = [24, 0, 0, 1]<br/>class = Bed>, fillcolor="#e68641"] ;
667 -> 668 ;
669 [label=<gini = 0.0<br/>samples = 21<br/>value = [21, 0, 0, 0]<br/>class = Bed>, fillcolor="#e58139"] ;
668 -> 669 ;
670 [label=<lateral acc &le; 0.157<br/>gini = 0.375<br/>samples = 4<br/>value = [3, 0, 0, 1]<br/>class = Bed>, fillcolor="#eeab7b"] ;
668 -> 670 ;
671 [label=<gini = 0.0<br/>samples = 1<br/>value = [0, 0, 0, 1]<br/>class = Ambulating>, fillcolor="#d739e5"] ;
670 -> 671 ;
672 [label=<gini = 0.0<br/>samples = 3<br/>value = [3, 0, 0, 0]<br/>class = Bed>, fillcolor="#e58139"] ;
670 -> 672 ;
673 [label=<vertical acc &le; 0.962<br/>gini = 0.5<br/>samples = 2<br/>value = [1, 1, 0, 0]<br/>class = Bed>, fillcolor="#ffffff"] ;
667 -> 673 ;
674 [label=<gini = 0.0<br/>samples = 1<br/>value = [0, 1, 0, 0]<br/>class = Chair>, fillcolor="#47e539"] ;
673 -> 674 ;
675 [label=<gini = 0.0<br/>samples = 1<br/>value = [1, 0, 0, 0]<br/>class = Bed>, fillcolor="#e58139"] ;
673 -> 675 ;
676 [label=<gini = 0.0<br/>samples = 1<br/>value = [0, 1, 0, 0]<br/>class = Chair>, fillcolor="#47e539"] ;
662 -> 676 ;
677 [label=<lateral acc &le; -0.002<br/>gini = 0.395<br/>samples = 40<br/>value = [30, 8, 0, 2]<br/>class = Bed>, fillcolor="#eda877"] ;
461 -> 677 ;
678 [label=<RSSI &le; -59.25<br/>gini = 0.49<br/>samples = 14<br/>value = [6, 8, 0, 0]<br/>class = Chair>, fillcolor="#d1f8ce"] ;
677 -> 678 ;
679 [label=<frequency &le; 925.5<br/>gini = 0.32<br/>samples = 5<br/>value = [4, 1, 0, 0]<br/>class = Bed>, fillcolor="#eca06a"] ;
678 -> 679 ;
680 [label=<gini = 0.0<br/>samples = 4<br/>value = [4, 0, 0, 0]<br/>class = Bed>, fillcolor="#e58139"] ;
679 -> 680 ;
681 [label=<gini = 0.0<br/>samples = 1<br/>value = [0, 1, 0, 0]<br/>class = Chair>, fillcolor="#47e539"] ;
679 -> 681 ;
682 [label=<phase &le; 5.812<br/>gini = 0.346<br/>samples = 9<br/>value = [2, 7, 0, 0]<br/>class = Chair>, fillcolor="#7cec72"] ;
678 -> 682 ;
683 [label=<phase &le; 0.569<br/>gini = 0.219<br/>samples = 8<br/>value = [1, 7, 0, 0]<br/>class = Chair>, fillcolor="#61e955"] ;
682 -> 683 ;
684 [label=<frequency &le; 922.75<br/>gini = 0.5<br/>samples = 2<br/>value = [1, 1, 0, 0]<br/>class = Bed>, fillcolor="#ffffff"] ;
683 -> 684 ;
685 [label=<gini = 0.0<br/>samples = 1<br/>value = [0, 1, 0, 0]<br/>class = Chair>, fillcolor="#47e539"] ;
684 -> 685 ;
686 [label=<gini = 0.0<br/>samples = 1<br/>value = [1, 0, 0, 0]<br/>class = Bed>, fillcolor="#e58139"] ;
684 -> 686 ;
687 [label=<gini = 0.0<br/>samples = 6<br/>value = [0, 6, 0, 0]<br/>class = Chair>, fillcolor="#47e539"] ;
683 -> 687 ;
688 [label=<gini = 0.0<br/>samples = 1<br/>value = [1, 0, 0, 0]<br/>class = Bed>, fillcolor="#e58139"] ;
682 -> 688 ;
689 [label=<phase &le; 0.127<br/>gini = 0.142<br/>samples = 26<br/>value = [24, 0, 0, 2]<br/>class = Bed>, fillcolor="#e78c49"] ;
677 -> 689 ;
690 [label=<gini = 0.0<br/>samples = 1<br/>value = [0, 0, 0, 1]<br/>class = Ambulating>, fillcolor="#d739e5"] ;
689 -> 690 ;
691 [label=<frequency &le; 921.0<br/>gini = 0.077<br/>samples = 25<br/>value = [24, 0, 0, 1]<br/>class = Bed>, fillcolor="#e68641"] ;
689 -> 691 ;
692 [label=<frequency &le; 920.5<br/>gini = 0.375<br/>samples = 4<br/>value = [3, 0, 0, 1]<br/>class = Bed>, fillcolor="#eeab7b"] ;
691 -> 692 ;
693 [label=<gini = 0.0<br/>samples = 3<br/>value = [3, 0, 0, 0]<br/>class = Bed>, fillcolor="#e58139"] ;
692 -> 693 ;
694 [label=<gini = 0.0<br/>samples = 1<br/>value = [0, 0, 0, 1]<br/>class = Ambulating>, fillcolor="#d739e5"] ;
692 -> 694 ;
695 [label=<gini = 0.0<br/>samples = 21<br/>value = [21, 0, 0, 0]<br/>class = Bed>, fillcolor="#e58139"] ;
691 -> 695 ;
696 [label=<lateral acc &le; 0.117<br/>gini = 0.307<br/>samples = 6025<br/>value = [4938, 857, 0, 230]<br/>class = Bed>, fillcolor="#ea9c63"] ;
82 -> 696 ;
697 [label=<vertical acc &le; 0.957<br/>gini = 0.236<br/>samples = 4510<br/>value = [3913, 441, 0, 156]<br/>class = Bed>, fillcolor="#e99356"] ;
696 -> 697 ;
698 [label=<lateral acc &le; 0.003<br/>gini = 0.396<br/>samples = 1367<br/>value = [1022, 285, 0, 60]<br/>class = Bed>, fillcolor="#eda978"] ;
697 -> 698 ;
699 [label=<lateral acc &le; -0.088<br/>gini = 0.284<br/>samples = 869<br/>value = [724, 127, 0, 18]<br/>class = Bed>, fillcolor="#ea9a60"] ;
698 -> 699 ;
700 [label=<RSSI &le; -56.25<br/>gini = 0.469<br/>samples = 59<br/>value = [18, 39, 0, 2]<br/>class = Chair>, fillcolor="#a1f29a"] ;
699 -> 700 ;
701 [label=<phase &le; 6.004<br/>gini = 0.254<br/>samples = 21<br/>value = [18, 1, 0, 2]<br/>class = Bed>, fillcolor="#e99558"] ;
700 -> 701 ;
702 [label=<lateral acc &le; -0.105<br/>gini = 0.194<br/>samples = 19<br/>value = [17, 1, 0, 1]<br/>class = Bed>, fillcolor="#e88f4f"] ;
701 -> 702 ;
703 [label=<gini = 0.0<br/>samples = 10<br/>value = [10, 0, 0, 0]<br/>class = Bed>, fillcolor="#e58139"] ;
702 -> 703 ;
704 [label=<vertical acc &le; 0.922<br/>gini = 0.37<br/>samples = 9<br/>value = [7, 1, 0, 1]<br/>class = Bed>, fillcolor="#eca06a"] ;
702 -> 704 ;
705 [label=<gini = 0.0<br/>samples = 1<br/>value = [0, 1, 0, 0]<br/>class = Chair>, fillcolor="#47e539"] ;
704 -> 705 ;
706 [label=<phase &le; 1.471<br/>gini = 0.219<br/>samples = 8<br/>value = [7, 0, 0, 1]<br/>class = Bed>, fillcolor="#e99355"] ;
704 -> 706 ;
707 [label=<frequency &le; 922.75<br/>gini = 0.5<br/>samples = 2<br/>value = [1, 0, 0, 1]<br/>class = Bed>, fillcolor="#ffffff"] ;
706 -> 707 ;
708 [label=<gini = 0.0<br/>samples = 1<br/>value = [0, 0, 0, 1]<br/>class = Ambulating>, fillcolor="#d739e5"] ;
707 -> 708 ;
709 [label=<gini = 0.0<br/>samples = 1<br/>value = [1, 0, 0, 0]<br/>class = Bed>, fillcolor="#e58139"] ;
707 -> 709 ;
710 [label=<gini = 0.0<br/>samples = 6<br/>value = [6, 0, 0, 0]<br/>class = Bed>, fillcolor="#e58139"] ;
706 -> 710 ;
711 [label=<phase &le; 6.169<br/>gini = 0.5<br/>samples = 2<br/>value = [1, 0, 0, 1]<br/>class = Bed>, fillcolor="#ffffff"] ;
701 -> 711 ;
712 [label=<gini = 0.0<br/>samples = 1<br/>value = [0, 0, 0, 1]<br/>class = Ambulating>, fillcolor="#d739e5"] ;
711 -> 712 ;
713 [label=<gini = 0.0<br/>samples = 1<br/>value = [1, 0, 0, 0]<br/>class = Bed>, fillcolor="#e58139"] ;
711 -> 713 ;
714 [label=<gini = 0.0<br/>samples = 38<br/>value = [0, 38, 0, 0]<br/>class = Chair>, fillcolor="#47e539"] ;
700 -> 714 ;
715 [label=<phase &le; 5.064<br/>gini = 0.228<br/>samples = 810<br/>value = [706, 88, 0, 16]<br/>class = Bed>, fillcolor="#e99356"] ;
699 -> 715 ;
716 [label=<frontal acc &le; 0.454<br/>gini = 0.133<br/>samples = 481<br/>value = [447, 29, 0, 5]<br/>class = Bed>, fillcolor="#e78a48"] ;
715 -> 716 ;
717 [label=<frontal acc &le; 0.02<br/>gini = 0.064<br/>samples = 368<br/>value = [356, 7, 0, 5]<br/>class = Bed>, fillcolor="#e68540"] ;
716 -> 717 ;
718 [label=<frequency &le; 921.25<br/>gini = 0.611<br/>samples = 6<br/>value = [3, 1, 0, 2]<br/>class = Bed>, fillcolor="#f8e0ce"] ;
717 -> 718 ;
719 [label=<vertical acc &le; 0.83<br/>gini = 0.444<br/>samples = 3<br/>value = [0, 1, 0, 2]<br/>class = Ambulating>, fillcolor="#eb9cf2"] ;
718 -> 719 ;
720 [label=<gini = 0.0<br/>samples = 1<br/>value = [0, 1, 0, 0]<br/>class = Chair>, fillcolor="#47e539"] ;
719 -> 720 ;
721 [label=<gini = 0.0<br/>samples = 2<br/>value = [0, 0, 0, 2]<br/>class = Ambulating>, fillcolor="#d739e5"] ;
719 -> 721 ;
722 [label=<gini = 0.0<br/>samples = 3<br/>value = [3, 0, 0, 0]<br/>class = Bed>, fillcolor="#e58139"] ;
718 -> 722 ;
723 [label=<phase &le; 0.524<br/>gini = 0.049<br/>samples = 362<br/>value = [353, 6, 0, 3]<br/>class = Bed>, fillcolor="#e6843e"] ;
717 -> 723 ;
724 [label=<phase &le; 0.439<br/>gini = 0.161<br/>samples = 69<br/>value = [63, 5, 0, 1]<br/>class = Bed>, fillcolor="#e78d4c"] ;
723 -> 724 ;
725 [label=<lateral acc &le; -0.054<br/>gini = 0.115<br/>samples = 66<br/>value = [62, 3, 0, 1]<br/>class = Bed>, fillcolor="#e78946"] ;
724 -> 725 ;
726 [label=<frontal acc &le; 0.372<br/>gini = 0.32<br/>samples = 16<br/>value = [13, 2, 0, 1]<br/>class = Bed>, fillcolor="#eb9c63"] ;
725 -> 726 ;
727 [label=<gini = 0.0<br/>samples = 13<br/>value = [13, 0, 0, 0]<br/>class = Bed>, fillcolor="#e58139"] ;
726 -> 727 ;
728 [label=<frontal acc &le; 0.401<br/>gini = 0.444<br/>samples = 3<br/>value = [0, 2, 0, 1]<br/>class = Chair>, fillcolor="#a3f29c"] ;
726 -> 728 ;
729 [label=<gini = 0.0<br/>samples = 1<br/>value = [0, 0, 0, 1]<br/>class = Ambulating>, fillcolor="#d739e5"] ;
728 -> 729 ;
730 [label=<gini = 0.0<br/>samples = 2<br/>value = [0, 2, 0, 0]<br/>class = Chair>, fillcolor="#47e539"] ;
728 -> 730 ;
731 [label=<lateral acc &le; -0.008<br/>gini = 0.039<br/>samples = 50<br/>value = [49, 1, 0, 0]<br/>class = Bed>, fillcolor="#e6843d"] ;
725 -> 731 ;
732 [label=<gini = 0.0<br/>samples = 43<br/>value = [43, 0, 0, 0]<br/>class = Bed>, fillcolor="#e58139"] ;
731 -> 732 ;
733 [label=<phase &le; 0.149<br/>gini = 0.245<br/>samples = 7<br/>value = [6, 1, 0, 0]<br/>class = Bed>, fillcolor="#e9965a"] ;
731 -> 733 ;
734 [label=<gini = 0.0<br/>samples = 6<br/>value = [6, 0, 0, 0]<br/>class = Bed>, fillcolor="#e58139"] ;
733 -> 734 ;
735 [label=<gini = 0.0<br/>samples = 1<br/>value = [0, 1, 0, 0]<br/>class = Chair>, fillcolor="#47e539"] ;
733 -> 735 ;
736 [label=<frequency &le; 925.0<br/>gini = 0.444<br/>samples = 3<br/>value = [1, 2, 0, 0]<br/>class = Chair>, fillcolor="#a3f29c"] ;
724 -> 736 ;
737 [label=<gini = 0.0<br/>samples = 2<br/>value = [0, 2, 0, 0]<br/>class = Chair>, fillcolor="#47e539"] ;
736 -> 737 ;
738 [label=<gini = 0.0<br/>samples = 1<br/>value = [1, 0, 0, 0]<br/>class = Bed>, fillcolor="#e58139"] ;
736 -> 738 ;
739 [label=<lateral acc &le; -0.054<br/>gini = 0.02<br/>samples = 293<br/>value = [290, 1, 0, 2]<br/>class = Bed>, fillcolor="#e5823b"] ;
723 -> 739 ;
740 [label=<phase &le; 1.621<br/>gini = 0.059<br/>samples = 99<br/>value = [96, 1, 0, 2]<br/>class = Bed>, fillcolor="#e6853f"] ;
739 -> 740 ;
741 [label=<frontal acc &le; 0.354<br/>gini = 0.164<br/>samples = 34<br/>value = [31, 1, 0, 2]<br/>class = Bed>, fillcolor="#e78d4c"] ;
740 -> 741 ;
